svm_type c_svc
kernel_type rbf
gamma 10
nr_class 14
total_sv 1126
rho 0.088888888888888892 -0.21951219512195122 -0.1194241431451613 -0.23170731707317074 -0.29268292682926828 -0.1951219512195122 -0.15853658536585366 0.15463917525773196 -0.15853658536585366 -0.044068667763157897 -0.31707317073170732 -0.15853658536585366 -0.22139033564814814 -0.28888888888888886 -0.16899565077319587 -0.29999999999999999 -0.35555555555555557 -0.26666666666666666 -0.23333333333333334 0.072164948453608241 -0.23333333333333334 -0.097103851010101008 -0.37777777777777777 -0.23333333333333334 -0.26912913602941174 0.030303030303030304 -0.015625 -0.09375 0.030303030303030304 0.072463768115942032 0.34020618556701032 0.072463768115942032 0.15787381904069767 -0.125 0.072463768115942032 -0.086642795138888895 -0.045454545454545456 -0.12121212121212122 0 0.02490234375 0.20808549360795456 0.02490234375 0.078125 -0.15151515151515152 0.02490234375 -0.10379655393835617 -0.079365079365079361 0.045454545454545456 0.086956521739130432 0.35051546391752575 0.086956521739130432 0.17099144345238096 -0.1111111111111111 0.086956521739130432 -0.077524038461538464 0.12121212121212122 0.15942028985507245 0.40206185567010311 0.15942028985507245 0.23688342524509803 -0.034482758620689655 0.15942028985507245 -0.030514039855072464 0.043478260869565216 0.31958762886597936 0.043478260869565216 0.13161117311507936 -0.15151515151515152 0.043478260869565216 -0.10379655393835617 0.28865979381443296 0 0.092113095238095244 -0.18840579710144928 0 -0.12830982592281878 -0.28865979381443296 -0.13911490091463416 -0.42268041237113402 -0.28865979381443296 -0.3065578654661017 0.092113095238095244 -0.18840579710144928 0 -0.12830982592281878 -0.26315789473684209 -0.092105263157894732 -0.18096454326923078 0.18840579710144928 -0.010512408088235295 -0.12830982592281878
label 4 1 7 5 10 13 12 8 3 9 2 11 6 0
nr_sv 82 90 64 118 63 58 66 69 97 69 130 56 69 95
SV
1 0.7802734375 0.8798828125 0.767578125 0.70703125 0.8046875 0.8408203125 1 0.8408203125 0.955078125 0.6826171875 0.8408203125 0.7783203125 1:93 2:166 3:34 4:107 5:169 6:245 7:254 8:9 9:16 10:26 11:194 12:137 13:199 14:178 15:14 16:249 17:192 18:210 19:218 20:28 21:44 22:164 23:196 24:161 25:138 26:37 27:176 28:61 29:240 30:123 31:28 32:251 33:13 34:248 35:35 36:53 37:181 38:11 39:149 40:230 41:4 42:57 43:69 44:255 45:255 46:251 47:26 48:49 49:138 50:184 51:21 52:197 53:25 54:134 55:245 56:47 57:24 58:254 59:73 60:216 61:213 62:106 63:252 64:236 65:7 66:202 67:255 68:173 69:85 70:50 71:148 72:13 73:127 74:5 75:119 76:250 77:91 78:1 79:55 80:14 81:252 82:11 83:252 84:120 85:243 86:180 87:252 88:237 89:7 90:253 91:142 92:152 93:230 94:84 95:71 96:67 97:198 98:111 99:12 100:24 101:161 102:255 103:110 104:128 105:247 106:147 107:109 108:31 109:251 110:245 111:255 112:44 113:46 114:254 115:90 116:33 117:122 118:250 119:76 120:171 121:191 122:227 123:126 124:91 125:215 126:148 127:79 128:18 129:5 130:155 131:204 132:208 133:251 134:232 135:184 136:99 137:247 138:87 139:143 140:149 141:149 142:254 143:116 144:211 145:206 146:103 147:11 148:217 149:25 150:175 151:153 152:48 153:194 154:223 155:7 156:252 157:4 158:22 159:246 160:214 161:105 162:76 163:5 164:140 165:128 166:230 167:220 168:212 169:219 170:204 171:249 172:102 173:5 174:74 175:155 176:211 177:234 178:42 179:253 180:149 181:189 182:234 183:21 184:38 185:135 186:250 187:150 188:255 189:241 190:186 191:112 192:182 193:234 194:156 195:249 196:145 197:41 198:201 199:230 200:249 201:132 202:222 203:77 204:239 205:206 206:252 207:132 208:59 209:252 210:44 211:206 212:29 213:217 215:208 216:9 217:248 218:248 219:253 220:136 221:41 222:73 223:123 224:150 225:252 
1 0.7802734375 0.8798828125 0.767578125 0.70703125 0.8046875 0.8408203125 1 0.8408203125 0.955078125 0.6826171875 0.8408203125 0.7783203125 1:10 2:238 3:245 4:81 5:228 6:252 7:255 8:21 9:144 10:224 11:187 12:203 13:204 14:26 15:245 16:253 17:56 18:220 19:105 20:121 21:27 22:235 23:201 24:228 25:25 26:202 27:99 28:12 29:6 30:206 31:130 32:254 33:81 34:254 35:126 36:69 37:253 38:252 39:162 40:74 41:253 42:159 43:127 44:255 45:255 46:254 47:163 48:218 49:171 50:230 51:171 52:11 53:114 54:96 55:80 56:255 57:231 58:255 59:225 60:202 61:222 62:75 63:254 64:238 65:13 66:203 67:255 68:37 69:86 70:130 71:9 72:112 73:119 74:127 75:146 76:7 77:177 78:242 79:122 80:93 81:191 82:204 83:40 84:126 85:143 86:24 87:245 88:253 89:251 90:221 91:240 92:22 93:11 94:102 95:83 96:248 97:252 98:61 99:244 100:47 101:43 102:255 103:195 104:164 105:151 106:137 107:32 108:2 109:228 110:177 111:63 112:191 113:185 114:91 115:220 116:114 117:134 118:253 119:253 120:224 121:210 122:179 123:232 124:29 125:235 126:243 127:149 128:230 129:67 130:77 131:147 132:175 133:232 134:248 135:18 136:144 137:197 138:185 139:133 140:154 141:12 142:255 143:24 144:115 145:2 146:119 147:7 148:66 149:245 150:109 151:36 152:115 153:56 154:252 155:157 156:253 157:5 158:173 159:29 160:5 161:169 162:46 163:232 164:3 165:64 166:37 167:227 168:229 169:6 170:194 171:95 172:249 173:212 174:233 175:216 176:154 177:15 178:58 179:236 180:84 181:245 182:241 183:203 184:2 185:237 186:254 187:160 188:255 189:35 190:133 191:8 192:16 193:180 194:253 195:252 196:238 197:189 198:3 199:192 200:130 201:1 202:251 203:179 204:126 205:143 206:1 207:116 208:61 209:254 210:215 211:45 212:90 213:80 214:242 215:248 216:71 217:241 218:177 219:254 220:98 221:3 222:59 223:141 224:1 225:191 
1 0.78125 0.8798828125 0.767578125 0.70703125 0.8046875 0.8408203125 1 0.8408203125 0.955078125 0.6826171875 0.8408203125 0.7783203125 1:125 2:69 3:141 4:174 5:246 6:247 7:254 8:203 9:65 10:237 11:202 12:180 13:188 14:83 15:203 16:252 17:121 18:117 19:161 20:17 21:98 22:60 23:226 24:220 25:102 26:247 27:64 28:41 29:14 30:223 31:93 32:253 33:211 34:251 35:174 36:124 37:251 38:253 39:98 40:9 41:247 42:32 43:58 44:255 45:255 46:252 47:219 48:229 49:127 50:87 51:207 52:3 53:156 54:14 55:45 56:245 57:220 58:255 59:225 60:14 61:217 62:86 63:253 64:236 65:146 66:8 67:255 68:88 69:27 70:127 71:232 72:230 73:28 74:233 75:143 76:15 77:211 78:199 79:69 80:1 81:173 82:226 83:69 84:213 85:36 86:45 87:207 88:217 89:247 90:198 91:196 92:22 93:101 94:184 95:100 96:251 97:135 98:198 99:171 100:170 101:46 102:255 103:230 104:158 105:6 106:117 107:39 108:25 109:236 110:155 111:13 112:159 113:76 114:35 115:193 116:232 117:121 118:251 119:197 120:224 121:191 122:207 123:237 124:251 125:232 126:253 127:75 128:237 129:186 130:11 131:251 132:45 133:196 134:187 135:203 136:173 137:126 138:185 139:121 140:207 141:193 142:254 143:226 144:154 145:44 146:140 147:37 148:192 149:207 150:101 151:3 152:201 153:216 154:233 155:205 156:253 157:36 158:215 159:152 160:6 161:146 162:221 163:247 164:58 165:186 166:67 167:219 168:126 169:29 170:240 171:76 172:169 173:223 174:57 175:41 176:65 177:20 178:248 179:244 180:155 181:71 182:251 183:248 184:14 185:234 186:252 187:70 188:255 189:25 190:69 191:63 192:23 193:105 194:252 195:226 196:122 197:207 198:5 199:251 200:186 201:79 202:163 203:63 204:213 205:11 206:1 207:36 208:201 209:253 210:200 211:40 212:54 213:15 214:254 215:234 216:189 217:89 218:23 219:254 220:245 221:71 222:20 223:125 224:35 225:16 
1 0.78125 0.8798828125 0.767578125 0.70703125 0.8046875 0.8408203125 1 0.8408203125 0.955078125 0.6826171875 0.8408203125 0.7783203125 1:12 2:181 3:134 4:209 5:216 6:247 7:254 8:132 9:140 10:246 11:118 12:203 13:176 14:67 15:198 16:252 17:58 18:149 19:196 20:7 21:56 22:202 23:240 24:230 25:5 26:210 27:58 28:48 29:13 30:199 31:103 32:254 33:118 34:252 35:144 36:114 37:251 38:249 39:172 40:37 41:254 42:127 43:129 44:255 45:255 46:253 47:214 48:248 49:168 50:193 51:222 52:7 53:116 54:55 55:90 56:253 57:173 58:255 59:205 60:127 61:212 62:75 63:254 64:246 65:60 66:13 67:255 68:162 69:34 70:203 71:157 72:167 73:106 74:207 75:130 76:27 77:162 78:68 79:98 80:12 81:186 82:232 83:62 84:209 85:115 86:35 87:223 88:224 89:252 90:170 91:207 92:5 93:199 94:115 95:159 96:250 97:210 98:98 99:222 100:41 101:35 102:255 103:193 104:193 105:41 106:136 107:62 108:4 109:242 110:222 111:42 112:187 113:190 114:91 115:237 116:171 117:124 118:252 119:186 120:241 121:208 122:199 123:240 124:24 125:235 126:248 127:115 128:187 129:70 130:20 131:218 132:97 133:232 134:227 135:221 136:144 137:229 138:153 139:134 140:206 141:137 142:255 143:103 144:45 145:14 146:125 147:11 148:121 149:236 150:179 151:16 152:18 153:153 154:251 155:99 156:253 157:33 158:218 159:58 160:6 161:150 162:115 163:251 164:41 165:40 166:44 167:223 168:200 169:132 170:224 171:117 172:232 173:159 174:199 175:184 176:51 177:5 178:214 179:226 180:101 181:224 182:244 183:211 184:4 185:229 186:254 187:143 188:255 189:58 190:239 191:15 192:77 193:117 194:254 195:251 196:237 197:114 198:2 199:230 200:164 201:18 202:248 203:175 204:109 205:56 206:4 207:42 208:70 209:254 210:184 211:19 212:80 213:33 214:233 215:228 216:99 217:199 218:181 219:254 220:230 221:1 222:11 223:124 224:3 225:169 
1 0.78125 0.8798828125 0.767578125 0.70703125 0.8046875 0.8408203125 1 0.8408203125 0.955078125 0.6826171875 0.8408203125 0.7783203125 1:49 2:187 3:253 4:35 5:188 6:239 7:254 8:120 9:195 10:185 11:193 12:162 13:218 14:46 15:222 16:253 17:7 18:190 19:35 20:189 21:101 22:245 23:234 24:62 25:68 26:250 27:96 28:11 29:14 30:96 31:208 32:254 33:237 34:254 35:70 36:115 37:246 38:229 39:78 40:95 41:253 42:192 43:161 44:255 45:255 46:254 47:137 48:250 49:196 50:142 51:240 52:15 53:219 54:39 55:244 56:254 57:214 58:255 59:139 60:206 61:177 62:45 63:254 64:241 65:19 66:148 67:255 68:121 69:142 70:122 71:40 72:52 73:143 74:149 75:143 76:2 77:218 78:236 79:100 80:130 81:212 82:234 83:32 84:10 85:30 86:23 87:242 88:193 89:253 90:231 91:219 92:14 93:39 94:91 95:58 96:250 97:221 98:176 99:251 100:19 101:18 102:255 103:240 104:245 105:73 106:116 107:18 108:1 109:242 110:105 111:6 112:168 113:170 114:81 115:242 116:69 117:151 118:253 119:253 120:239 121:190 122:147 123:251 124:18 125:237 126:233 127:89 128:237 129:62 130:238 131:203 132:62 133:215 134:252 135:27 136:181 137:192 138:105 139:123 140:138 141:2 142:255 143:22 144:32 145:3 146:50 147:10 148:79 149:236 150:52 151:34 152:210 153:75 154:250 155:179 156:253 157:3 158:227 159:38 160:127 161:166 162:60 163:207 164:13 165:71 166:209 167:227 168:236 169:16 170:84 171:19 172:251 173:250 174:70 175:219 176:248 177:67 178:197 179:241 180:174 181:245 182:228 183:210 184:4 185:215 186:254 187:159 188:255 189:101 190:226 191:2 192:117 193:149 194:249 195:242 196:252 197:95 198:3 199:116 200:8 201:31 202:252 203:104 204:104 205:142 206:4 207:245 208:158 209:254 210:186 211:11 212:90 213:139 214:152 215:248 216:12 217:183 218:237 219:254 220:164 221:35 222:46 223:144 224:7 225:228 
1 0.78125 0.8798828125 0.767578125 0.70703125 0.8046875 0.8408203125 1 0.8408203125 0.955078125 0.6826171875 0.8408203125 0.7783203125 1:30 2:140 3:24 4:4 5:137 6:216 7:255 8:58 9:178 10:112 11:227 12:71 13:8 14:166 15:20 16:253 17:209 18:218 19:71 20:28 21:51 22:248 23:24 24:27 25:56 26:59 27:93 28:11 29:134 30:211 31:124 32:254 33:114 34:254 35:52 36:209 37:180 38:4 39:191 40:249 41:220 42:40 43:170 44:255 45:255 46:254 47:6 48:164 49:162 50:20 51:46 52:108 53:37 54:156 55:181 56:161 57:63 58:255 59:10 60:126 61:157 62:90 63:254 64:85 65:62 66:72 67:255 68:245 69:65 70:92 71:33 72:5 73:122 74:6 75:164 76:237 77:231 78:225 79:228 80:25 81:243 82:35 83:78 85:255 86:143 87:254 88:57 89:119 90:119 91:26 92:27 93:224 94:17 95:120 96:242 97:72 98:180 99:217 100:97 101:2 102:255 103:15 104:247 105:252 106:147 107:33 108:12 109:202 110:186 111:232 112:184 113:225 114:249 115:152 116:45 117:149 118:253 119:6 120:59 121:197 122:249 123:197 124:58 125:239 126:3 127:157 128:116 129:125 130:251 131:49 132:170 133:236 134:65 135:125 136:131 137:255 138:1 139:152 140:176 141:147 142:255 143:195 144:42 145:69 146:57 147:14 148:252 149:200 150:157 151:22 152:69 153:82 154:170 155:12 156:254 157:49 158:126 159:252 160:226 161:66 162:32 163:8 164:246 165:149 166:255 167:222 168:208 169:172 170:116 171:252 172:158 173:50 174:105 175:185 176:164 177:194 178:2 179:249 180:77 181:240 182:202 183:3 184:9 185:122 186:254 187:232 188:255 189:180 190:140 191:240 192:15 193:104 194:63 195:244 196:103 197:224 198:41 199:18 200:155 201:197 202:244 203:130 204:76 205:215 206:252 207:166 208:104 209:254 210:136 211:116 212:38 213:203 214:107 215:254 216:179 217:245 218:254 219:254 220:169 221:18 222:49 223:187 224:148 225:254 
1 0.78125 0.8798828125 0.767578125 0.70703125 0.8046875 0.841796875 1 0.841796875 0.9560546875 0.68359375 0.841796875 0.7783203125 1:4 2:197 3:4 4:190 5:254 6:190 7:254 8:125 9:5 10:32 11:121 12:146 13:2 14:230 15:17 16:252 17:27 18:242 19:155 20:6 21:127 22:195 23:2 24:192 25:230 26:23 27:164 28:42 29:130 30:49 31:170 32:253 33:255 34:251 35:167 36:205 37:226 38:212 39:38 40:253 41:249 42:43 43:94 44:255 45:255 46:252 47:16 48:239 49:120 50:167 51:23 52:83 53:7 54:29 55:153 56:11 57:238 58:255 59:17 60:4 61:6 62:112 63:254 64:119 65:19 66:26 67:255 68:181 69:14 70:154 71:62 72:206 73:235 74:26 75:156 76:149 77:160 78:196 79:172 80:16 81:196 82:189 83:55 85:75 86:242 87:253 88:147 89:111 90:1 91:19 92:1 93:107 94:23 95:121 96:110 97:220 98:185 99:92 100:3 101:30 102:255 104:105 105:101 106:95 107:112 108:147 109:35 110:208 111:32 112:164 113:231 114:195 115:27 116:137 117:190 118:252 120:45 121:172 122:221 123:189 124:203 125:222 126:13 127:106 128:8 129:252 130:255 131:21 132:46 133:115 134:8 135:217 136:223 137:32 138:31 139:189 140:47 141:244 142:255 143:141 144:2 145:67 146:201 147:127 148:254 149:77 150:43 151:56 152:12 153:153 154:90 155:240 156:253 157:162 158:120 159:249 160:142 161:74 162:235 163:247 164:166 165:13 166:40 167:193 168:65 169:10 170:133 171:251 172:162 173:98 174:37 175:21 176:33 177:31 178:220 179:174 180:253 181:1 182:216 183:22 184:40 185:239 186:252 187:225 188:255 189:173 191:196 192:87 194:95 195:119 197:240 198:3 199:47 200:198 201:254 202:18 203:247 204:237 205:143 206:209 207:1 208:64 209:253 210:4 211:19 213:220 214:252 215:180 216:128 217:74 218:45 219:254 220:224 221:183 222:194 223:193 224:224 225:96 
1 0.78125 0.8798828125 0.767578125 0.70703125 0.8046875 0.841796875 1 0.841796875 0.9560546875 0.68359375 0.841796875 0.7783203125 1:218 2:31 4:17 5:9 6:184 7:252 8:245 9:165 10:67 11:122 12:70 13:181 14:59 15:15 16:242 17:1 18:30 19:109 20:131 21:12 22:254 23:71 24:7 25:104 26:204 27:50 28:15 29:153 31:64 32:244 33:90 34:239 35:5 36:51 37:63 38:3 39:7 40:50 41:2 42:169 43:11 44:255 45:255 46:248 47:151 48:143 49:113 50:246 51:4 53:9 54:1 55:7 56:11 57:127 58:253 60:17 62:2 63:249 64:245 65:10 66:213 67:255 68:122 69:88 70:4 71:163 72:1 73:10 74:215 75:51 76:50 77:247 78:10 79:34 80:4 81:231 82:202 83:247 84:10 85:5 86:49 87:207 88:189 89:26 90:231 91:198 92:146 93:254 94:133 95:15 96:130 97:186 99:222 101:2 102:254 103:1 104:76 105:166 106:5 107:4 108:160 109:69 110:151 111:19 112:18 113:16 114:27 115:214 116:192 117:24 118:214 119:2 120:191 121:103 122:237 123:228 124:65 125:104 126:13 127:42 128:63 129:1 131:45 132:5 133:230 134:227 135:16 136:19 137:152 138:9 139:56 140:76 141:85 142:254 143:198 144:126 145:26 146:12 147:51 148:72 149:11 150:252 151:36 152:8 153:1 154:166 155:251 156:247 157:11 159:237 160:1 161:55 162:156 163:46 164:2 165:167 166:66 167:153 168:115 169:20 170:151 171:6 172:123 173:7 174:239 175:9 176:83 177:4 178:28 179:161 181:245 182:70 183:251 184:24 185:74 186:241 187:55 188:255 189:4 190:1 191:217 192:63 193:226 194:228 195:97 196:168 197:80 198:76 199:2 200:149 201:192 202:81 203:7 204:30 205:105 206:55 207:6 208:1 209:244 210:209 211:103 212:245 214:66 215:249 216:95 217:217 218:76 219:252 220:162 221:74 222:120 223:20 224:140 225:134 
1 0.78125 0.8798828125 0.767578125 0.70703125 0.8046875 0.841796875 1 0.841796875 0.9560546875 0.68359375 0.841796875 0.7783203125 1:236 2:215 3:211 4:2 5:236 6:140 7:254 8:242 9:22 10:5 11:235 12:135 13:56 14:194 15:245 16:251 17:209 18:123 19:5 20:55 21:225 22:239 23:10 24:42 25:254 26:254 27:168 28:81 29:171 30:222 31:87 32:252 33:239 34:250 35:92 36:165 37:42 38:231 39:38 40:225 41:32 42:34 43:40 44:255 45:255 46:252 47:170 48:198 49:179 50:113 51:78 52:153 53:122 54:34 55:162 56:2 57:195 58:254 59:224 60:97 61:183 62:29 63:253 64:114 65:63 66:137 67:255 68:200 69:154 70:22 71:5 72:250 73:34 74:239 75:181 76:15 77:207 78:236 79:209 80:17 81:249 82:20 83:212 84:77 85:5 86:12 87:153 88:92 89:56 90:127 91:1 92:83 93:33 94:199 95:85 96:53 97:237 98:133 99:8 100:136 101:253 102:255 103:154 104:246 105:2 106:160 107:243 108:129 109:218 110:245 111:132 112:160 113:139 114:206 115:225 116:67 117:173 118:252 119:64 120:37 121:207 122:166 123:250 124:253 125:228 126:244 127:126 128:152 129:41 130:244 131:228 132:188 133:212 134:164 135:222 136:173 137:6 138:223 139:123 140:21 141:148 142:254 143:146 144:108 145:197 146:149 147:237 148:223 149:14 150:12 151:29 152:226 153:121 154:12 155:254 156:251 157:2 158:179 159:240 160:150 161:94 162:94 163:162 164:59 165:198 166:4 167:214 168:240 169:1 170:248 171:243 172:244 173:228 174:221 175:41 176:250 177:78 178:243 179:179 180:252 181:103 182:63 183:228 184:13 185:39 186:251 187:55 188:255 189:28 190:165 191:126 192:163 193:218 194:4 195:243 196:153 197:240 198:12 199:250 200:229 201:134 202:105 203:188 204:187 205:208 206:135 207:200 208:28 209:252 210:167 211:73 212:5 213:42 214:231 215:244 216:6 217:176 218:11 219:254 220:136 221:254 222:31 223:161 224:212 225:12 
1 0.78125 0.8798828125 0.767578125 0.70703125 0.8046875 0.841796875 1 0.841796875 0.9560546875 0.68359375 0.841796875 0.7783203125 1:78 2:235 3:45 4:2 5:161 6:239 7:255 8:140 9:147 10:20 11:232 12:28 13:215 14:221 15:138 16:254 17:23 18:163 19:146 20:224 21:56 22:252 23:4 24:11 25:8 26:248 27:101 28:3 29:120 30:126 31:162 32:254 33:244 34:254 35:33 36:241 37:7 38:161 39:55 40:253 41:20 42:2 43:149 44:255 45:255 46:254 47:1 48:157 49:212 50:70 51:247 52:198 53:66 54:146 55:244 56:205 57:33 58:255 59:2 60:242 61:84 62:38 63:255 64:26 65:79 66:247 67:255 68:222 69:233 70:238 71:214 72:20 73:88 74:109 75:203 76:216 77:186 78:39 79:127 80:198 81:154 82:251 83:1 84:6 85:219 86:195 87:248 88:65 89:51 90:29 91:34 92:51 93:4 94:6 95:68 96:26 97:242 98:70 99:26 100:99 101:22 102:255 103:4 104:212 105:19 106:197 107:200 108:222 109:224 110:28 111:96 112:32 113:76 114:235 115:246 116:228 117:198 118:254 119:6 120:179 121:232 122:243 123:136 124:14 125:245 126:1 127:174 129:229 130:253 131:94 132:151 133:245 134:129 135:6 136:224 137:144 138:39 139:168 140:102 141:178 142:255 143:210 144:8 145:38 146:71 147:242 148:165 149:171 150:147 151:102 152:22 153:2 154:122 155:26 156:254 157:116 158:154 159:209 160:254 161:146 162:12 163:14 164:253 165:18 166:255 167:237 168:49 169:178 170:25 171:254 172:116 173:250 174:69 175:180 176:9 177:194 178:83 179:248 180:218 181:165 182:198 183:24 184:9 185:12 186:254 187:234 188:255 189:239 190:199 191:225 192:146 193:160 194:2 195:204 196:114 197:254 198:38 199:5 200:202 201:236 202:243 203:246 204:136 205:240 206:254 207:49 208:70 209:254 210:118 211:130 212:129 213:189 214:136 215:245 216:232 217:214 218:227 219:255 220:16 221:21 222:76 223:214 224:251 225:250 
1 0.78125 0.8798828125 0.767578125 0.70703125 0.8056640625 0.841796875 1 0.841796875 0.9560546875 0.68359375 0.841796875 0.779296875 1:19 2:226 3:235 4:62 5:183 6:190 7:255 8:219 9:56 10:245 11:251 12:54 13:236 14:2 15:128 16:254 17:159 18:65 19:28 20:239 21:45 22:73 23:224 24:232 25:238 26:122 27:203 28:12 29:17 30:225 31:146 32:254 33:126 34:254 35:114 36:8 37:250 38:246 39:160 40:129 41:70 42:230 43:154 44:255 45:255 46:254 47:108 48:189 49:174 50:245 51:188 52:4 53:173 54:106 55:118 56:192 57:229 58:255 59:41 60:145 61:229 62:84 63:254 64:247 65:23 66:209 67:255 68:18 69:187 70:123 71:30 72:247 73:55 74:74 75:183 76:27 77:54 78:250 79:192 80:127 81:211 82:222 83:20 84:48 85:78 86:26 87:248 88:188 89:212 90:235 91:240 92:16 93:50 94:68 95:74 96:129 97:224 98:37 99:218 100:58 101:102 102:255 103:191 104:176 105:8 106:145 107:93 108:9 109:253 110:102 111:49 112:185 113:205 114:14 115:218 116:20 117:116 118:253 119:238 120:232 121:212 122:249 123:253 124:188 125:239 126:239 127:149 128:196 129:198 130:95 131:134 132:202 133:72 134:252 135:201 136:114 137:220 138:86 139:161 140:134 141:209 142:255 143:29 144:167 145:2 146:114 147:12 148:52 149:231 150:14 151:12 152:50 153:20 154:216 155:66 156:254 157:58 158:214 159:169 160:4 161:170 162:45 163:245 164:17 165:34 166:10 167:228 168:207 170:246 171:130 172:248 173:144 174:82 175:232 176:178 177:18 178:134 179:31 180:36 181:249 182:53 183:143 184:4 185:249 186:254 187:125 188:255 189:30 190:11 191:196 192:144 193:235 194:233 195:254 196:208 197:237 198:57 199:188 200:153 201:36 202:252 203:8 204:89 205:169 207:214 208:102 209:254 210:169 211:93 212:81 213:18 214:221 215:251 216:30 217:247 218:173 219:255 220:113 221:215 222:14 223:125 224:1 225:86 
1 0.78125 0.8798828125 0.767578125 0.70703125 0.8056640625 0.841796875 1 0.841796875 0.9560546875 0.68359375 0.841796875 0.779296875 1:109 2:212 3:73 4:211 5:231 6:252 7:254 8:7 9:35 10:245 11:47 12:189 13:125 14:43 15:124 16:252 17:238 18:208 19:184 20:3 21:60 22:149 23:247 24:149 25:17 26:174 27:101 28:18 29:90 30:206 31:57 32:253 33:46 34:252 35:122 36:127 37:245 38:240 39:47 40:12 41:239 42:20 43:50 44:255 45:255 46:252 47:66 48:201 49:127 50:203 51:180 52:38 53:66 54:132 55:87 56:253 57:191 58:255 59:236 60:169 61:251 62:169 63:254 64:240 65:100 66:24 67:255 68:62 69:17 70:128 71:138 72:203 73:97 74:182 75:143 76:30 77:139 78:3 79:33 80:8 81:168 82:142 83:193 84:221 85:250 86:7 87:250 88:245 89:124 90:250 91:222 92:21 93:41 94:62 95:96 96:252 97:211 98:27 99:82 100:223 101:120 102:255 103:192 104:79 105:186 106:158 107:76 108:9 109:234 110:154 111:251 112:183 113:125 114:234 115:42 116:214 117:145 118:251 119:211 120:251 121:206 122:243 123:233 124:151 125:230 126:247 127:124 128:217 129:6 130:5 131:218 132:70 133:233 134:231 135:15 136:129 137:237 138:220 139:164 140:203 141:199 142:255 143:93 144:50 145:53 146:225 147:7 148:150 149:130 150:159 151:18 152:21 153:176 154:236 155:28 156:253 157:33 158:130 159:179 160:6 161:111 162:69 163:237 164:74 165:209 166:234 167:216 168:239 169:101 170:242 171:144 172:133 173:142 174:146 175:148 176:74 177:21 178:33 179:237 180:25 181:199 182:124 183:55 184:8 185:237 186:253 187:111 188:255 189:60 190:203 191:32 192:24 193:35 194:166 195:251 196:250 197:221 198:25 199:246 200:197 201:1 202:254 203:244 204:156 205:158 206:222 207:58 208:73 209:253 210:44 211:60 212:35 213:28 214:205 215:252 216:15 217:243 218:253 219:254 220:237 221:5 222:149 223:149 224:3 225:168 
1 0.78125 0.8798828125 0.767578125 0.70703125 0.8046875 0.841796875 1 0.841796875 0.9560546875 0.68359375 0.841796875 0.779296875 1:14 2:54 3:171 4:199 5:246 6:253 7:254 8:128 9:58 10:186 11:102 12:32 13:226 14:55 15:86 16:253 17:75 18:191 19:192 20:1 21:207 22:37 23:249 24:16 25:12 26:236 27:34 28:99 29:43 30:224 31:50 32:254 33:223 34:253 35:118 36:16 37:163 38:100 39:26 40:6 41:147 42:15 43:105 44:255 45:255 46:252 47:2 48:245 49:187 50:101 51:244 52:39 53:212 54:14 55:71 56:161 57:103 58:255 59:163 60:176 61:20 62:58 63:254 64:200 65:150 66:40 67:255 68:108 69:9 70:62 71:39 72:244 73:93 74:240 75:141 76:84 77:95 78:179 79:44 80:7 81:248 82:245 83:69 84:176 85:171 86:19 87:151 88:213 89:182 90:236 91:182 92:13 93:15 94:134 95:81 96:252 97:20 98:181 99:86 100:160 101:116 102:255 103:246 104:153 105:16 106:155 107:74 108:78 109:248 110:172 111:71 112:70 113:56 114:229 115:194 116:210 117:190 118:252 119:105 120:218 121:180 122:222 123:195 124:60 125:230 126:165 127:126 128:203 129:216 130:80 131:205 132:42 133:107 134:230 135:28 136:138 137:81 138:87 139:147 140:18 141:172 142:255 143:17 144:25 145:175 146:61 147:21 148:67 149:110 150:132 151:7 152:109 153:162 154:216 155:245 156:254 157:37 158:139 159:191 160:120 161:139 162:208 163:248 164:255 165:213 166:121 167:214 168:202 169:23 170:13 171:101 172:130 173:246 174:23 175:19 176:32 177:122 178:241 179:250 180:206 181:140 182:153 183:243 184:4 185:193 186:254 187:189 188:255 189:37 190:252 191:32 192:163 193:34 194:157 195:231 196:183 197:163 198:18 199:243 200:192 201:252 202:244 203:238 204:192 205:21 206:239 207:10 208:105 209:254 210:65 211:249 212:32 213:25 214:181 215:188 216:51 217:135 218:13 219:254 220:232 221:131 222:11 223:155 224:35 225:26 
1 0.78125 0.8798828125 0.767578125 0.70703125 0.8046875 0.841796875 1 0.841796875 0.9560546875 0.68359375 0.841796875 0.779296875 1:25 2:117 3:163 4:181 5:247 6:248 7:254 8:18 9:59 10:247 11:214 12:229 13:167 14:95 15:102 16:252 17:194 18:222 19:55 20:7 21:60 22:105 23:235 24:130 25:88 26:222 27:124 28:12 29:45 30:247 31:64 32:253 33:216 34:251 35:97 36:6 37:244 38:253 39:41 40:7 41:252 42:14 43:55 44:255 45:255 46:252 47:111 48:245 49:149 50:204 51:223 52:7 53:203 54:50 55:13 56:246 57:169 58:255 59:225 60:153 61:88 62:115 63:254 64:238 65:94 66:10 67:255 68:23 69:35 70:114 71:164 72:228 73:41 74:187 75:167 76:15 77:14 78:99 79:38 80:3 81:251 82:185 83:58 84:192 85:65 86:18 87:144 88:252 89:192 90:250 91:200 92:9 93:8 94:175 95:68 96:238 97:239 98:154 99:113 100:139 101:180 102:255 103:154 104:44 105:4 106:144 107:93 108:52 109:246 110:195 111:59 112:192 113:17 114:146 115:250 116:140 117:139 118:251 119:234 120:246 121:194 122:100 123:243 124:137 125:227 126:251 127:111 128:210 129:191 130:121 131:182 132:65 133:209 134:240 135:76 136:90 137:234 138:242 139:136 140:102 141:67 142:255 143:70 144:236 145:25 146:50 147:19 148:240 149:208 150:33 151:4 152:64 153:225 154:220 155:175 156:253 157:1 158:228 159:88 160:8 161:113 162:123 163:248 164:128 165:156 166:50 167:223 168:205 169:12 170:218 171:134 172:238 173:244 174:74 175:83 176:12 177:64 178:222 179:233 180:157 181:226 182:236 183:92 184:3 185:235 186:253 187:204 188:255 189:30 190:246 191:16 192:83 193:58 194:241 195:253 196:74 197:185 198:1 199:246 200:182 201:68 202:253 203:245 204:50 205:75 206:4 207:99 208:111 209:253 210:235 211:124 212:12 213:5 214:251 215:247 216:55 217:215 218:45 219:254 220:234 221:18 222:17 223:144 224:35 225:123 
1 0.78125 0.8798828125 0.767578125 0.7080078125 0.8046875 0.841796875 1 0.841796875 0.9560546875 0.68359375 0.841796875 0.779296875 1:99 2:57 3:22 4:233 5:202 6:202 7:253 8:64 9:71 10:251 11:56 12:193 13:200 14:167 15:30 16:249 17:235 18:195 19:92 20:3 21:111 22:129 23:231 24:177 25:41 26:191 27:72 28:18 29:20 30:129 31:61 32:253 33:18 34:249 35:152 36:6 37:243 38:245 39:20 40:3 41:255 42:11 43:27 44:255 45:255 46:250 47:66 48:142 49:135 50:134 51:232 52:81 53:95 54:12 55:2 56:251 57:125 58:254 59:162 60:109 61:180 62:132 63:252 64:235 65:71 66:19 67:255 68:106 69:42 70:226 71:245 72:214 73:9 74:61 75:162 76:9 77:32 78:67 79:97 80:1 81:147 82:41 83:215 84:253 85:95 86:6 87:172 88:252 89:52 90:254 91:196 92:40 93:80 94:100 95:40 96:231 97:173 98:32 99:82 100:242 101:191 102:255 103:209 104:44 105:25 106:171 107:86 108:27 109:242 110:57 111:242 112:153 113:18 114:193 115:229 116:229 117:124 118:250 119:54 120:250 121:206 122:142 123:189 124:192 125:219 126:249 127:90 128:120 129:78 130:68 131:244 132:83 133:240 134:224 135:31 136:159 137:244 138:197 139:135 140:166 141:58 142:254 143:108 144:248 145:51 146:127 147:10 148:184 149:99 150:62 151:19 152:236 153:165 154:220 155:201 156:252 157:3 158:244 159:125 160:73 161:128 162:58 163:234 164:94 165:107 166:15 167:215 168:192 169:76 170:249 171:137 172:88 173:71 174:170 175:84 176:2 177:60 178:36 179:237 180:60 181:32 182:152 183:42 184:11 185:237 186:251 187:184 188:255 189:75 190:205 191:162 192:30 193:150 194:15 195:251 196:162 197:154 198:12 199:123 200:239 201:2 202:240 203:217 204:173 205:188 206:19 207:102 208:167 209:252 210:210 211:65 212:19 213:6 214:250 215:222 216:216 217:245 218:208 219:253 220:244 221:9 222:69 223:128 224:13 225:176 
1 0.78125 0.8798828125 0.767578125 0.7080078125 0.8046875 0.841796875 1 0.841796875 0.9560546875 0.68359375 0.841796875 0.779296875 1:1 2:87 3:62 4:43 5:175 6:99 7:255 8:255 9:216 10:235 11:1 12:21 13:35 14:107 15:226 16:254 17:53 18:46 19:126 20:1 21:153 22:17 23:207 24:197 25:25 26:9 27:158 28:155 30:208 31:181 32:254 33:237 34:254 35:123 36:87 37:121 38:26 39:33 41:242 42:181 43:159 44:255 45:255 46:254 47:1 48:26 49:215 50:66 51:245 52:230 53:133 54:207 55:1 56:224 57:4 58:255 59:2 61:1 62:128 63:255 64:250 66:170 67:255 68:252 69:219 70:187 71:224 72:224 73:224 74:236 75:222 76:253 77:251 78:14 79:27 80:228 81:139 82:247 83:165 84:241 85:171 86:24 87:200 88:6 89:130 90:161 91:21 92:165 93:197 94:33 95:153 96:253 97:111 98:241 99:161 100:101 101:61 102:255 103:80 104:255 105:251 106:81 107:45 108:219 109:36 110:65 111:221 112:181 113:191 114:68 115:183 116:69 117:187 118:254 119:27 120:159 121:215 122:211 123:1 124:1 125:243 126:120 127:186 128:226 129:247 130:90 131:225 132:218 133:246 134:2 135:158 136:121 137:241 138:12 139:137 140:26 141:62 142:255 143:39 144:138 145:234 146:129 147:76 148:14 149:98 150:17 151:108 152:253 153:111 154:254 155:253 156:254 157:236 158:207 159:223 160:229 161:104 162:236 163:42 164:251 165:4 166:22 167:232 168:202 169:244 170:192 171:128 172:238 173:192 174:20 175:142 176:99 177:204 178:198 179:250 181:68 182:252 183:254 184:1 185:25 186:255 187:215 188:255 189:189 190:254 191:227 192:36 193:254 194:104 195:214 196:21 197:152 198:249 199:91 200:241 201:222 202:176 203:236 204:254 205:241 206:72 207:14 208:23 209:255 210:108 211:235 212:7 213:175 214:17 215:159 216:232 217:224 218:244 219:255 220:117 221:27 222:2 223:185 224:19 225:247 
1 0.78125 0.880859375 0.767578125 0.7080078125 0.8046875 0.841796875 1 0.841796875 0.9560546875 0.68359375 0.841796875 0.779296875 2:255 3:230 4:167 5:253 6:218 7:255 8:252 9:121 10:17 11:21 12:20 13:179 14:254 15:252 16:254 17:156 18:159 19:216 20:15 21:121 22:46 23:255 24:138 25:127 26:198 27:184 28:100 29:5 30:237 31:174 32:255 33:255 34:255 35:242 36:206 37:81 38:99 39:62 40:1 41:186 42:31 43:128 44:255 45:255 46:254 47:56 48:116 49:179 50:86 51:253 52:236 53:159 54:247 55:16 56:122 57:74 58:255 59:9 60:6 61:205 62:164 63:255 64:250 65:209 66:252 67:255 68:2 69:85 70:154 71:30 72:180 73:153 74:218 75:223 76:251 77:67 78:220 79:237 80:225 81:241 82:228 83:198 84:254 85:243 86:1 87:59 88:115 89:128 90:29 91:23 92:41 93:24 94:114 95:226 96:109 97:12 98:251 99:25 100:55 101:202 102:255 103:1 104:212 105:10 106:123 107:250 108:217 109:235 110:241 111:252 112:130 113:206 114:31 115:169 116:72 117:171 118:254 119:200 120:219 121:212 122:61 123:45 124:94 125:243 126:2 127:209 128:219 129:255 130:194 131:243 132:114 133:88 135:22 136:71 137:9 138:140 139:152 140:6 141:149 142:255 143:18 144:33 145:222 146:214 147:169 148:5 149:2 150:3 151:191 152:246 153:90 154:239 155:253 156:255 157:215 158:31 159:171 160:111 161:111 162:236 163:246 164:252 165:23 166:4 167:236 168:108 169:104 170:239 171:149 172:44 173:74 174:227 175:47 176:5 177:62 178:152 179:252 180:29 181:109 182:220 183:204 184:5 185:187 186:255 187:69 188:255 189:38 190:254 191:119 192:12 193:243 194:1 195:248 196:26 197:169 198:161 199:207 200:253 201:125 202:232 203:244 204:252 205:7 206:7 207:9 208:44 209:255 210:161 211:255 212:4 213:238 214:244 215:81 216:176 217:192 218:24 219:255 220:237 221:204 222:38 223:196 224:83 225:1 
1 0.78125 0.880859375 0.767578125 0.7080078125 0.8046875 0.841796875 1 0.841796875 0.9560546875 0.68359375 0.841796875 0.779296875 1:3 2:15 3:69 4:35 5:64 6:145 7:255 8:249 9:184 10:254 11:1 12:23 13:97 14:60 15:7 16:254 17:247 18:186 19:145 20:10 21:197 22:2 23:221 24:90 25:20 26:17 27:126 28:243 29:79 30:20 31:33 32:255 33:29 34:255 35:60 36:253 37:16 38:3 39:203 40:3 41:254 42:221 43:190 44:255 45:255 46:255 47:187 48:57 49:171 50:162 51:244 52:98 53:15 54:81 55:226 56:59 57:4 58:255 59:32 60:187 61:146 62:34 63:255 64:16 65:15 66:43 67:255 68:253 69:35 70:246 71:254 72:1 73:136 74:226 75:228 76:252 77:252 78:2 79:33 80:132 81:140 82:220 83:246 84:40 85:252 86:248 87:236 88:3 89:251 90:198 91:200 92:157 93:254 94:5 95:129 96:251 97:27 98:10 99:237 100:113 101:44 102:255 103:244 104:252 105:242 106:204 107:10 108:6 109:10 110:17 111:252 112:118 113:130 114:253 115:4 116:250 117:198 118:254 119:47 120:9 121:222 122:208 123:72 125:248 126:245 127:179 128:237 129:3 130:4 131:243 132:157 133:77 134:251 135:253 136:175 137:253 138:174 139:194 140:216 141:251 142:255 143:86 144:1 145:248 146:209 147:99 148:6 149:232 150:255 151:74 152:233 153:96 154:252 155:3 156:255 157:238 158:223 159:228 160:156 161:134 162:208 163:5 164:106 165:85 166:254 167:236 168:146 169:254 170:7 171:240 172:254 173:210 174:18 175:100 176:51 177:195 178:225 179:98 180:7 181:15 182:205 183:243 184:44 185:6 186:255 187:228 188:255 189:247 190:187 191:241 192:1 193:25 194:123 195:13 196:5 197:169 198:253 199:233 200:222 201:141 202:240 203:146 204:248 205:181 206:244 207:109 208:53 209:255 210:84 211:205 212:27 213:25 215:83 216:151 217:175 218:255 219:255 220:23 221:1 222:2 223:204 224:8 225:177 
1 0.78125 0.880859375 0.767578125 0.7080078125 0.8046875 0.841796875 1 0.841796875 0.9560546875 0.68359375 0.841796875 0.779296875 1:2 2:212 3:61 4:54 5:190 6:132 7:255 8:249 9:130 10:248 11:2 12:13 13:236 14:26 15:4 16:254 17:182 18:32 19:147 20:5 21:251 22:5 23:247 24:4 25:85 26:16 27:125 28:254 29:78 30:63 31:28 32:254 33:209 34:255 35:49 36:202 37:63 38:52 39:35 41:249 42:253 43:100 44:255 45:255 46:254 47:166 48:6 49:186 50:227 51:231 52:95 53:5 54:10 55:6 56:43 57:4 58:255 59:6 60:8 61:46 62:18 63:255 64:177 65:2 66:140 67:255 68:251 69:179 70:221 71:254 72:16 73:76 74:250 75:190 76:248 77:254 78:134 79:23 80:74 81:152 82:245 83:250 84:183 85:186 86:36 87:234 88:111 89:190 90:144 91:196 92:72 93:250 94:72 95:62 96:254 97:29 98:149 99:199 100:221 101:154 102:255 103:197 104:248 105:179 106:175 107:71 108:91 109:67 110:8 111:221 112:125 113:48 114:216 115:17 116:248 117:153 118:253 120:1 121:213 122:236 123:150 125:240 126:223 127:150 128:239 129:63 130:73 131:83 132:225 133:19 134:135 135:252 136:220 137:252 138:92 139:142 140:34 141:252 142:255 143:14 144:21 145:243 146:37 147:18 148:4 149:127 150:223 151:35 152:249 153:228 154:236 155:129 156:255 157:246 158:240 159:252 160:240 161:101 162:254 163:71 164:183 165:72 166:241 167:225 168:169 169:254 170:65 171:248 172:251 173:239 174:49 175:38 176:2 177:237 178:250 179:242 180:29 181:8 182:78 183:246 184:16 185:26 186:254 187:220 188:255 189:240 190:255 191:238 192:54 193:202 194:27 195:49 196:18 197:202 198:253 199:231 200:253 201:251 202:166 203:133 204:254 205:218 206:252 207:111 208:143 209:255 210:46 211:235 212:20 213:10 214:1 215:194 216:158 217:223 218:128 219:255 220:122 221:45 222:9 223:150 224:6 225:60 
1 0.78125 0.880859375 0.7685546875 0.7080078125 0.8046875 0.841796875 1 0.841796875 0.9560546875 0.68359375 0.841796875 0.779296875 1:3 2:176 3:4 4:132 5:174 6:7 7:255 8:233 9:223 10:254 11:1 12:12 13:54 14:138 16:255 17:217 18:69 19:219 20:1 21:187 22:251 23:251 24:9 25:59 27:241 28:222 29:160 30:234 31:56 32:255 33:253 34:255 35:222 36:88 37:53 38:3 39:98 40:4 41:75 42:233 43:225 44:255 45:255 46:255 47:198 48:247 49:215 50:191 51:7 52:114 53:31 54:146 55:14 56:4 57:3 58:255 59:17 60:6 61:1 62:84 63:255 64:246 65:44 67:255 68:236 69:8 70:169 71:198 72:247 73:161 74:239 75:234 76:252 77:129 78:54 79:204 80:23 81:253 82:202 83:210 84:254 85:194 86:191 87:192 88:87 89:23 90:252 91:13 92:16 93:248 94:129 95:83 96:245 97:74 98:198 99:244 100:61 101:8 102:255 103:74 104:254 105:245 106:188 107:41 108:34 109:224 110:116 111:114 112:235 113:118 114:242 115:241 116:16 117:216 118:254 119:16 120:17 121:238 122:122 123:52 124:21 125:244 126:231 127:118 128:182 129:77 130:224 131:29 132:212 133:7 134:231 135:249 136:82 137:255 138:48 139:215 140:29 141:227 142:255 143:184 144:247 145:18 146:121 147:236 148:125 149:63 150:251 151:36 153:229 154:218 155:207 156:255 157:249 158:235 159:165 160:6 161:126 162:26 163:137 164:255 165:113 166:71 167:223 168:227 169:244 170:42 171:110 172:217 173:191 174:1 175:160 176:78 177:251 178:244 179:21 180:3 181:254 182:217 183:185 184:3 185:120 186:255 187:250 188:255 189:188 190:112 191:144 192:231 193:224 194:38 195:92 196:74 197:49 198:72 199:107 200:151 201:253 202:137 203:41 204:2 205:31 206:11 207:111 208:84 209:255 210:196 211:228 212:241 213:11 214:25 215:254 216:244 217:26 218:227 219:255 220:31 221:190 222:1 223:179 224:56 225:109 
1 0.7802734375 0.880859375 0.7685546875 0.70703125 0.8046875 0.841796875 1 0.841796875 0.9560546875 0.68359375 0.841796875 0.779296875 2:186 3:206 4:55 5:93 6:10 7:255 8:130 9:236 10:255 11:4 12:84 13:207 14:201 15:22 16:255 17:199 18:236 19:235 20:33 21:112 22:158 23:253 24:1 25:10 27:221 28:251 29:53 30:239 31:62 32:255 33:164 34:255 35:139 36:24 37:136 38:4 39:203 40:81 41:236 42:244 43:230 44:255 45:255 46:255 47:68 48:136 49:224 50:236 51:85 52:196 53:24 54:119 55:28 56:6 57:2 58:255 59:2 60:75 61:9 62:36 63:255 64:135 65:13 66:5 67:255 68:230 69:24 70:128 71:130 72:13 73:136 74:71 75:221 76:253 77:221 78:41 79:89 80:174 81:254 82:197 83:235 84:237 85:247 86:7 87:187 88:242 89:50 90:151 91:36 92:22 93:217 94:55 95:94 96:250 97:81 98:235 99:243 100:45 101:2 102:255 103:149 104:255 105:228 106:205 107:109 108:10 109:249 110:164 111:247 112:220 113:47 114:249 115:90 116:99 117:197 118:254 119:55 120:3 121:233 122:6 123:107 125:241 126:226 127:134 128:192 129:4 130:246 131:20 132:243 133:26 134:236 135:253 136:138 137:255 138:9 139:205 140:79 141:201 142:255 143:43 144:174 145:89 146:83 147:244 148:23 149:105 150:240 151:125 153:226 154:239 155:6 156:255 157:235 158:241 159:141 160:63 161:102 162:20 163:5 164:246 165:40 166:225 167:231 168:209 169:246 170:4 171:248 172:243 173:242 174:75 175:244 176:6 177:245 178:246 179:117 180:2 181:247 182:41 183:129 184:1 185:61 186:255 187:241 188:255 189:232 190:253 191:159 192:219 193:220 194:219 195:55 196:6 197:40 198:30 199:79 200:212 201:246 202:254 203:12 204:16 205:48 206:211 207:81 208:80 209:255 210:44 211:187 212:252 213:33 214:21 215:247 216:195 217:222 218:253 219:255 220:5 221:1 222:1 223:193 224:13 225:54 
1 0.7802734375 0.880859375 0.7685546875 0.70703125 0.8046875 0.841796875 1 0.841796875 0.9560546875 0.68359375 0.841796875 0.779296875 1:1 2:207 3:163 4:46 5:33 6:10 7:255 8:253 9:243 10:254 12:37 13:253 14:214 15:3 16:255 17:254 18:190 19:16 20:15 21:222 22:79 23:254 25:134 26:8 27:177 28:252 29:75 30:85 31:16 32:255 33:167 34:255 35:118 36:14 37:10 38:1 39:13 40:3 41:202 42:134 43:217 44:255 45:255 46:255 47:136 48:249 49:200 50:244 51:42 52:228 53:6 54:226 55:233 56:12 57:1 58:255 59:42 60:21 61:6 62:95 63:255 64:104 65:8 66:35 67:255 68:142 69:191 70:196 71:237 72:225 73:34 74:232 75:223 76:254 77:166 78:11 79:39 80:72 81:251 82:246 83:252 84:251 85:4 86:67 87:64 88:64 89:239 90:191 91:101 92:17 93:255 94:8 95:120 96:166 97:170 98:39 99:70 100:237 101:8 102:255 103:254 104:254 105:217 106:192 107:157 108:133 109:242 110:46 111:215 112:211 113:110 114:249 115:234 116:42 117:180 118:254 119:196 120:239 121:237 122:76 123:244 125:247 126:204 127:202 128:55 129:110 130:26 131:152 132:243 133:78 134:217 135:248 136:197 137:83 138:239 139:180 140:19 141:242 142:255 143:134 144:238 145:199 146:30 147:21 148:3 149:195 150:211 151:158 152:155 153:141 154:217 155:66 156:255 157:40 158:92 159:196 160:98 161:150 162:184 163:232 164:234 165:6 166:180 167:236 168:64 169:237 170:6 171:242 172:253 173:245 174:1 175:8 176:81 177:238 178:253 179:13 180:82 181:240 182:15 183:4 184:4 185:5 186:255 187:124 188:255 189:214 190:248 191:17 192:231 193:98 194:159 195:230 196:1 197:146 198:68 199:248 200:255 201:200 202:201 203:150 204:109 205:232 206:228 207:236 208:116 209:255 210:175 211:250 212:203 213:14 214:38 215:68 216:8 217:250 218:100 219:255 220:4 221:45 222:3 223:171 224:117 225:169 
1 0.7802734375 0.8798828125 0.7685546875 0.70703125 0.8046875 0.841796875 1 0.841796875 0.9560546875 0.68359375 0.841796875 0.779296875 1:1 2:7 3:29 4:187 5:242 6:47 7:255 8:249 9:213 10:217 12:15 13:2 14:243 15:41 16:255 17:176 18:12 19:11 20:27 21:17 22:4 23:248 24:255 25:131 26:45 27:224 28:8 30:233 31:211 32:255 33:255 34:255 35:111 36:206 37:82 39:238 40:1 41:186 42:196 43:253 44:255 45:255 46:255 48:6 49:236 50:184 51:254 52:171 53:79 54:251 55:10 56:216 57:1 58:255 59:23 60:71 61:2 62:85 63:255 64:146 65:43 66:167 67:255 68:186 69:251 70:46 71:252 72:45 73:241 74:50 75:238 76:229 77:245 78:1 79:99 80:245 81:141 82:251 83:107 84:169 85:255 86:195 87:32 88:13 89:2 90:149 91:239 92:205 93:132 94:26 95:198 96:246 97:53 98:231 99:63 100:57 101:3 102:255 103:2 104:241 105:250 106:238 107:37 108:47 109:73 110:165 111:236 112:242 113:183 114:58 115:83 116:14 117:223 118:255 119:252 120:212 121:235 122:102 123:1 124:6 125:251 126:37 127:198 128:254 129:235 130:3 131:234 132:165 133:247 134:4 135:7 136:136 137:235 138:207 139:194 140:53 141:40 142:255 143:78 144:121 145:80 146:196 147:204 148:2 149:106 150:167 151:147 152:178 153:23 154:250 155:217 156:255 157:253 158:231 159:127 160:251 161:157 162:17 163:3 164:254 165:1 166:55 167:239 168:192 169:239 170:5 171:59 172:60 173:254 174:3 175:130 176:207 177:250 178:47 179:243 181:126 182:242 183:165 184:4 185:3 186:255 187:100 188:255 189:225 190:18 191:22 192:6 193:254 194:209 195:101 196:76 197:21 198:255 199:168 200:144 201:122 202:194 203:255 204:254 205:7 206:250 207:18 208:45 209:255 210:39 211:254 212:24 213:29 214:33 215:27 216:252 217:119 218:222 219:255 220:48 221:14 222:5 223:215 224:48 225:137 
1 0.7802734375 0.8798828125 0.7685546875 0.70703125 0.8046875 0.841796875 1 0.841796875 0.9560546875 0.68359375 0.841796875 0.779296875 1:45 2:49 3:4 4:80 5:116 6:219 7:255 8:254 9:132 10:222 11:1 12:4 13:10 14:30 15:1 16:254 17:9 18:18 19:21 20:1 21:97 22:8 23:182 24:238 25:18 26:86 27:151 28:146 29:28 30:42 31:37 32:255 33:163 34:255 35:33 36:96 37:3 38:119 39:144 41:3 42:217 43:186 44:255 45:255 46:254 47:2 48:23 49:222 50:55 51:249 52:83 53:41 54:77 55:52 56:124 57:23 58:255 59:184 60:100 61:15 62:32 63:255 64:214 65:14 66:61 67:255 68:252 69:29 70:203 71:255 72:55 73:140 74:254 75:208 76:225 77:242 79:1 80:14 81:82 82:223 83:234 84:76 85:230 86:254 87:249 88:17 89:133 90:254 91:56 92:242 93:238 94:118 95:87 96:254 97:162 98:75 99:150 100:115 101:75 102:255 103:230 104:198 105:255 106:217 107:18 108:36 109:75 110:141 111:254 112:145 113:141 114:204 115:17 116:241 117:171 118:254 119:132 120:227 121:233 122:246 123:1 124:38 125:245 126:253 127:119 128:242 129:14 130:1 131:234 132:125 133:238 134:212 135:203 136:217 137:227 138:64 139:181 140:118 141:163 142:255 143:24 144:41 145:216 146:195 147:131 148:20 149:201 150:253 151:37 152:251 153:16 154:231 155:53 156:255 157:250 158:128 159:250 160:246 161:123 162:170 163:70 164:249 165:125 166:250 167:221 168:224 169:255 170:76 171:4 172:251 173:251 174:26 175:85 176:197 177:248 178:33 179:222 181:22 182:167 183:254 184:86 185:11 186:255 187:212 188:255 189:249 190:238 191:214 192:26 193:227 194:148 195:27 196:234 197:206 198:254 199:239 200:102 201:217 202:247 203:87 204:254 205:170 206:249 207:80 208:25 209:255 210:58 211:190 212:22 213:38 215:241 216:227 217:99 218:222 219:255 220:23 221:1 222:7 223:204 224:144 225:226 
1 0.7802734375 0.880859375 0.7685546875 0.70703125 0.8046875 0.841796875 1 0.841796875 0.9560546875 0.68359375 0.841796875 0.779296875 1:5 2:107 3:73 4:36 5:149 6:193 7:255 8:236 9:203 10:254 11:15 12:11 13:62 14:6 15:8 16:254 17:141 18:64 19:141 20:18 21:80 22:11 23:213 24:121 25:32 26:9 27:131 28:223 29:62 30:104 31:77 32:255 33:135 34:254 35:32 36:104 37:91 38:246 39:239 40:42 41:37 42:251 43:192 44:255 45:255 46:254 47:4 48:37 49:197 50:191 51:205 52:50 53:142 54:61 55:37 56:131 57:35 58:255 59:12 60:189 61:89 62:25 63:255 64:118 65:17 66:4 67:255 68:253 69:36 70:171 71:248 72:169 73:25 74:231 75:192 76:177 77:253 78:1 79:31 80:84 81:204 82:250 83:78 84:231 85:216 86:243 87:219 88:24 89:161 90:218 91:163 92:113 93:142 94:36 95:51 96:254 97:221 98:123 99:242 100:65 101:34 102:255 103:253 104:253 105:247 106:180 107:17 108:4 109:117 110:104 111:162 112:141 113:9 114:198 115:15 116:208 117:185 118:253 119:224 120:46 121:230 122:181 123:29 124:8 125:242 126:252 127:123 128:179 129:2 130:70 131:190 132:220 133:99 134:254 135:247 136:193 137:255 138:44 139:190 140:225 141:243 142:255 143:151 144:48 145:168 146:140 147:229 148:14 149:250 150:255 151:94 152:76 153:55 154:225 155:4 156:254 157:251 158:249 159:195 160:130 161:132 162:54 163:18 164:84 165:91 166:195 167:221 168:247 169:235 170:20 171:35 172:255 173:250 174:10 175:181 176:71 177:243 178:219 179:34 181:62 182:37 183:245 184:11 185:87 186:254 187:247 188:255 189:239 190:160 191:196 192:55 193:201 194:254 195:177 196:215 197:175 198:230 199:174 200:201 201:230 202:255 203:222 204:135 205:152 206:67 207:164 208:97 209:255 210:170 211:227 212:121 213:39 215:249 216:80 217:214 218:248 219:255 220:1 222:1 223:191 224:5 225:210 
1 0.7802734375 0.880859375 0.767578125 0.70703125 0.8046875 0.841796875 1 0.841796875 0.9560546875 0.68359375 0.841796875 0.779296875 1:39 3:1 4:15 5:95 6:145 7:255 8:242 9:19 10:251 11:1 12:5 13:18 14:164 16:255 17:207 18:7 19:17 20:1 21:146 22:21 23:136 24:240 25:128 26:25 27:201 28:20 29:30 30:97 31:76 32:255 33:9 34:255 35:57 36:235 37:125 38:11 39:201 40:2 41:71 42:141 43:200 44:255 45:255 46:255 47:54 48:12 49:218 50:127 51:213 52:66 53:30 54:47 55:60 56:3 57:3 58:255 59:165 60:77 61:17 62:22 63:255 64:26 65:12 66:1 67:255 68:254 69:105 70:252 71:254 72:35 73:182 74:114 75:223 76:75 77:254 78:2 79:15 80:12 81:166 82:195 83:248 84:173 85:243 86:247 87:151 88:156 89:25 90:250 91:224 92:239 93:242 94:91 95:68 96:247 97:125 98:14 99:170 100:90 101:177 102:255 103:174 104:239 105:251 106:230 107:14 108:11 109:95 110:21 111:241 112:163 113:186 114:247 115:12 116:251 117:194 118:255 119:84 120:29 121:244 122:254 123:4 124:4 125:249 126:253 127:159 128:244 129:1 130:1 131:234 132:110 133:225 134:243 135:231 136:216 137:253 138:140 139:209 140:209 141:254 142:255 143:224 144:152 145:247 146:234 147:187 148:4 149:211 150:252 151:21 152:89 153:123 154:211 155:35 156:255 157:252 158:248 159:253 160:208 161:186 162:30 163:7 164:52 165:88 166:35 167:237 168:170 169:245 170:39 171:175 172:228 173:251 174:52 175:234 176:145 177:245 178:195 179:91 181:134 182:210 183:244 184:6 185:7 186:255 187:231 188:255 189:241 190:18 191:239 192:85 193:235 194:243 195:39 196:98 197:37 198:255 199:162 200:249 201:174 202:67 203:164 204:212 205:77 206:220 207:152 208:42 209:255 210:38 211:243 212:76 213:7 214:1 215:246 216:253 217:251 218:243 219:255 220:12 222:1 223:209 224:12 225:193 
1 0.7802734375 0.880859375 0.767578125 0.70703125 0.8046875 0.841796875 1 0.841796875 0.9560546875 0.68359375 0.841796875 0.779296875 1:133 2:254 3:204 4:3 5:190 6:2 7:255 8:250 9:169 10:149 11:9 12:9 13:255 14:118 15:5 16:255 17:179 18:9 19:1 20:128 21:203 22:28 23:216 24:131 25:218 26:246 27:152 28:236 29:99 30:229 31:144 32:255 33:252 34:255 35:210 36:100 37:16 38:48 39:181 40:13 41:195 42:234 43:119 44:255 45:255 46:255 47:255 48:197 49:205 50:246 51:28 52:167 53:211 54:12 55:241 56:3 57:34 58:255 59:35 60:6 61:228 62:94 63:255 64:128 65:41 66:75 67:255 68:3 69:203 70:86 71:109 72:238 73:112 74:144 75:171 76:252 77:252 78:255 79:217 80:89 81:252 82:128 83:222 84:245 85:48 86:29 87:195 88:2 89:245 90:17 91:8 92:216 93:32 94:78 95:145 96:246 97:63 98:181 99:255 100:107 101:3 102:255 103:248 104:254 105:6 106:241 107:240 108:32 109:156 110:45 111:4 112:80 113:135 114:7 115:191 116:251 117:141 118:254 119:199 120:250 121:230 122:96 123:255 124:112 125:250 126:108 127:181 128:254 129:172 130:19 131:13 132:7 133:2 134:242 136:197 137:82 138:163 139:191 140:67 141:241 142:255 143:202 144:136 145:210 146:144 147:183 149:103 150:140 151:151 152:63 153:141 154:15 155:251 156:255 157:225 158:97 159:228 160:10 161:184 162:137 163:246 164:105 165:32 166:109 167:227 168:161 169:228 170:7 171:216 172:58 173:189 174:3 175:79 176:59 177:249 178:185 179:253 180:20 181:242 182:1 183:131 184:12 185:17 186:255 187:63 188:255 189:81 190:241 191:28 192:28 193:169 194:14 195:18 196:2 197:211 198:91 199:93 200:244 201:39 202:4 203:10 204:27 205:127 206:3 207:103 208:197 209:255 210:32 211:249 212:254 213:80 214:20 215:255 216:176 217:197 218:8 219:255 220:3 221:183 222:88 223:186 224:101 
1 0.7802734375 0.880859375 0.767578125 0.70703125 0.8046875 0.841796875 1 0.841796875 0.9560546875 0.68359375 0.841796875 0.779296875 1:2 2:239 3:223 4:29 5:177 6:186 7:255 8:34 9:30 10:22 11:32 12:87 13:253 14:197 15:4 16:253 17:156 18:197 19:26 20:166 21:122 22:57 23:236 24:6 25:115 26:46 27:124 28:162 29:182 30:48 31:2 32:254 33:171 34:254 35:31 36:246 37:45 39:204 40:232 41:20 42:155 43:123 44:255 45:255 46:254 47:2 48:187 49:165 50:246 51:107 52:109 53:17 54:213 55:255 56:106 57:5 58:255 59:2 60:238 61:246 62:67 63:255 64:111 65:59 66:240 67:255 68:47 69:242 70:30 71:197 72:1 73:229 74:89 75:130 76:255 77:250 78:11 79:51 80:232 81:239 82:42 83:157 84:4 85:239 86:222 87:253 88:59 89:227 90:79 91:203 92:18 93:75 94:7 95:132 96:21 97:241 98:129 99:15 100:114 101:58 102:255 103:21 104:251 105:188 106:95 107:143 108:43 109:220 110:232 111:247 112:35 113:125 114:254 115:71 116:55 117:193 118:254 119:3 120:3 121:220 122:253 123:252 124:4 125:242 126:64 127:188 128:8 129:1 130:164 131:16 132:215 133:207 134:66 135:220 136:144 137:138 138:89 139:193 140:113 141:249 142:255 143:180 145:242 146:38 147:202 148:23 149:22 150:219 151:166 152:112 153:50 154:245 156:254 157:39 158:2 159:253 160:89 161:87 162:63 163:1 164:7 165:16 166:254 167:242 168:64 169:254 170:223 171:252 172:219 173:3 174:48 175:115 176:241 177:182 178:156 179:244 180:212 181:253 182:134 183:1 184:39 185:2 186:254 187:73 188:255 189:187 190:123 191:15 192:195 193:238 194:121 195:253 196:181 197:98 198:219 199:248 200:238 201:127 202:171 203:104 204:248 205:182 206:254 207:222 208:14 209:254 210:7 211:117 212:20 213:255 215:242 217:232 218:242 219:255 220:140 221:96 222:89 223:171 224:59 225:244 
1 0.7802734375 0.880859375 0.7685546875 0.70703125 0.8046875 0.841796875 1 0.841796875 0.9560546875 0.68359375 0.841796875 0.779296875 1:236 2:185 3:252 4:83 5:185 6:238 7:253 8:237 9:226 10:168 11:157 12:173 13:244 14:46 15:245 16:251 17:7 18:120 19:14 20:175 21:150 22:71 23:250 24:179 25:208 26:255 27:189 28:20 29:10 30:98 31:147 32:252 33:216 34:252 35:114 36:139 37:89 38:208 39:175 40:4 41:246 42:4 43:113 44:255 45:255 46:251 47:209 48:252 49:129 50:214 51:240 52:144 53:196 54:101 55:214 56:229 57:238 58:254 59:242 60:224 61:247 62:172 63:253 64:232 65:156 66:206 67:255 68:45 69:134 70:6 71:23 72:252 73:58 74:119 75:189 76:27 77:7 78:186 79:243 80:160 81:206 82:244 83:26 84:229 85:7 86:1 87:54 88:39 89:243 90:213 91:83 92:26 93:32 94:7 95:179 96:240 97:125 98:18 99:86 100:235 101:225 102:255 103:255 104:157 105:1 106:136 107:212 108:85 109:151 110:197 111:9 112:94 113:206 114:142 115:137 116:103 117:145 118:251 119:254 120:254 121:195 122:170 123:252 124:127 125:234 126:224 127:176 128:235 129:55 130:15 131:255 132:132 133:219 134:253 135:17 136:125 137:1 138:255 139:143 140:42 141:46 142:254 143:207 144:10 145:180 146:71 147:46 148:4 149:204 150:120 151:70 152:103 153:65 154:163 155:234 156:251 157:2 158:13 159:55 160:5 161:136 162:57 163:228 164:109 165:88 166:12 167:216 168:200 169:2 170:132 171:6 172:248 173:126 174:2 175:85 176:251 177:9 178:122 179:188 180:88 181:76 182:81 183:247 184:4 185:126 186:252 187:89 188:255 189:50 190:248 191:2 192:7 193:40 194:240 195:254 196:168 197:244 198:2 199:237 200:213 201:23 202:253 203:208 204:125 205:137 207:239 208:186 209:252 210:232 211:198 212:13 213:12 214:81 215:165 217:213 218:23 219:253 220:89 221:24 222:194 223:163 224:4 225:12 
1 0.7802734375 0.880859375 0.7685546875 0.70703125 0.8046875 0.841796875 1 0.841796875 0.9560546875 0.68359375 0.841796875 0.779296875 1:2 2:6 3:130 4:189 5:227 6:134 7:255 8:215 9:8 10:254 11:14 12:7 13:249 14:194 15:240 16:254 17:14 18:104 19:243 20:14 21:18 22:2 23:252 24:224 25:10 26:69 27:169 28:141 29:10 30:103 31:85 32:255 33:129 34:255 35:119 36:177 37:255 38:152 39:179 40:6 41:198 42:173 43:162 44:255 45:255 46:255 47:14 48:52 49:196 50:235 51:217 52:227 53:207 54:44 55:71 56:86 57:105 58:255 59:91 60:165 61:245 62:98 63:255 64:240 65:7 66:46 67:255 68:40 69:14 70:95 71:166 72:196 73:210 74:51 75:212 76:209 77:156 78:70 79:96 80:51 81:238 82:150 83:191 84:254 85:251 86:26 87:39 88:124 89:203 90:210 91:244 92:109 93:233 94:217 95:83 96:253 97:18 98:2 99:184 100:67 101:4 102:255 103:178 104:249 105:244 106:161 107:61 108:4 109:151 110:217 111:136 112:146 113:64 114:33 115:8 116:11 117:167 118:254 119:236 120:254 121:213 122:207 123:31 124:40 125:244 126:255 127:175 128:255 129:12 130:1 131:251 132:94 133:131 134:251 135:4 136:81 137:209 138:235 139:207 140:166 141:54 142:255 143:101 144:230 145:145 146:197 147:12 148:1 149:161 150:241 151:18 152:36 153:7 154:251 155:211 156:255 157:19 158:212 159:221 160:6 161:174 162:126 163:11 164:173 165:204 166:1 167:233 168:190 169:247 170:128 171:67 172:232 173:243 174:11 175:206 176:80 177:118 178:202 179:253 180:1 181:172 182:254 183:255 184:6 185:217 186:255 187:99 188:255 189:162 190:196 191:7 192:1 193:250 194:252 195:158 196:9 197:50 198:242 199:233 200:253 201:25 202:61 203:233 204:248 205:6 206:1 207:105 208:186 209:255 210:16 211:254 212:30 213:18 214:5 215:202 216:122 217:248 218:252 219:255 220:53 221:30 222:2 223:124 224:5 225:40 
1 0.7802734375 0.880859375 0.7685546875 0.70703125 0.8046875 0.841796875 1 0.841796875 0.955078125 0.68359375 0.841796875 0.779296875 1:33 2:156 3:73 4:169 5:157 6:244 7:255 8:225 9:254 10:243 11:2 12:18 13:138 14:9 15:1 16:254 17:72 18:113 19:14 20:20 21:74 22:244 23:250 24:160 25:1 26:234 27:111 28:250 29:12 30:40 31:53 32:254 33:38 34:253 35:51 36:15 37:72 38:3 39:228 40:212 41:174 42:234 43:149 44:255 45:255 46:254 47:232 48:252 49:139 50:129 51:191 52:200 53:19 54:40 55:253 56:177 57:39 58:255 59:81 60:160 61:77 62:14 63:254 64:245 65:10 66:47 67:255 68:207 69:15 70:217 71:131 72:56 73:54 74:247 75:186 76:186 77:226 78:78 79:55 80:17 81:249 82:119 83:252 84:238 85:5 86:215 87:252 88:6 89:54 90:229 91:45 92:31 93:254 94:23 95:129 96:174 97:33 98:31 99:247 100:171 101:6 102:255 103:255 104:246 105:254 106:209 107:157 109:247 110:240 111:247 112:83 113:137 114:128 115:113 116:213 117:161 118:253 119:252 120:253 121:215 122:82 123:100 124:2 125:235 126:226 127:128 128:170 130:4 131:251 132:186 133:178 134:255 135:229 136:199 137:244 138:11 139:178 140:220 141:42 142:255 143:18 144:199 145:5 146:161 147:5 148:9 149:182 150:244 151:233 152:218 153:19 154:235 155:35 156:254 157:157 158:115 159:204 160:31 161:152 162:16 163:241 164:170 165:18 166:7 167:215 168:250 169:110 170:2 171:8 172:247 173:61 174:55 175:187 176:120 177:253 178:23 179:136 180:1 181:101 182:188 183:48 184:48 185:250 186:254 187:136 188:255 189:247 190:161 191:2 192:111 193:37 194:189 195:246 196:243 197:26 198:98 199:5 200:174 201:32 202:253 203:2 204:32 205:219 206:81 207:175 208:228 209:254 210:165 211:171 212:229 213:41 214:13 215:253 216:146 217:178 218:114 219:255 220:1 221:1 222:74 223:159 224:23 225:28 
1 0.7802734375 0.880859375 0.7685546875 0.70703125 0.8046875 0.841796875 1 0.841796875 0.955078125 0.68359375 0.841796875 0.779296875 1:31 2:170 3:220 4:91 5:225 6:246 7:255 8:32 9:101 10:3 11:195 12:50 13:43 14:28 15:62 16:252 17:173 18:227 19:247 20:52 21:174 22:207 23:169 24:143 25:90 26:208 27:29 28:214 29:35 30:84 31:12 32:253 33:251 34:252 35:130 36:249 37:144 38:11 39:128 40:238 41:15 42:232 43:131 44:255 45:255 46:253 47:210 48:89 49:144 50:64 51:251 52:93 53:113 54:42 55:254 56:234 57:198 58:255 59:168 60:25 61:216 62:66 63:254 64:246 65:152 66:244 67:255 68:12 69:187 70:180 71:1 72:111 73:177 74:254 75:180 76:247 77:229 78:248 79:225 80:117 81:219 82:113 83:237 84:4 85:170 86:99 87:255 88:12 89:13 90:233 91:42 92:170 93:9 94:61 95:132 96:24 97:9 98:86 99:130 100:114 101:86 102:255 103:68 104:216 105:56 106:205 107:235 108:56 109:242 110:227 111:246 112:103 113:183 114:115 115:170 116:242 117:149 118:251 119:232 120:235 121:145 122:247 123:251 124:253 125:207 126:11 127:157 128:143 129:70 130:229 131:159 132:66 133:6 134:76 135:209 136:175 137:4 138:90 139:165 140:107 141:48 142:255 143:13 144:2 145:11 146:205 147:9 148:17 149:7 150:131 151:118 152:231 153:2 154:80 155:122 156:254 157:91 158:7 159:233 160:147 161:180 162:196 163:254 164:251 165:128 166:215 167:196 168:214 169:5 170:70 171:107 172:235 173:90 174:227 175:40 176:62 177:168 178:165 179:215 180:253 181:104 182:46 183:173 184:103 185:245 186:253 187:82 188:255 189:177 190:77 191:204 192:203 193:23 194:1 195:95 196:195 197:125 198:197 199:194 200:115 201:89 202:211 203:73 204:98 205:227 206:128 207:130 208:82 209:253 210:149 211:208 212:238 213:169 214:228 215:179 216:40 217:138 218:3 219:254 220:145 221:242 222:82 223:168 224:126 225:37 
1 0.7802734375 0.880859375 0.7685546875 0.70703125 0.8046875 0.841796875 1 0.841796875 0.955078125 0.6826171875 0.841796875 0.779296875 2:28 3:111 4:184 5:70 6:30 7:254 8:29 9:156 10:252 11:175 12:2 13:166 14:109 15:11 16:252 17:210 18:190 19:244 20:161 21:84 22:225 23:239 24:5 25:227 26:25 27:215 28:78 29:238 30:185 31:104 32:252 33:182 34:252 35:163 36:63 37:197 38:121 39:141 40:69 41:253 42:236 43:202 44:255 45:255 46:251 47:217 48:231 49:201 50:228 51:70 52:206 53:44 54:80 55:217 56:6 57:16 58:254 59:34 60:29 61:122 62:100 63:253 64:134 65:247 66:2 67:255 68:102 69:85 70:18 71:244 72:213 73:100 74:98 75:189 76:183 77:35 78:255 79:189 80:61 81:238 82:83 83:157 84:213 85:232 86:15 87:44 88:139 89:246 90:242 91:90 92:43 93:218 94:241 95:135 96:246 97:14 98:1 99:248 100:27 101:215 102:255 103:244 104:179 105:254 106:139 107:84 108:71 109:204 110:204 111:22 112:142 113:187 114:111 115:220 116:61 117:123 118:246 119:4 120:140 121:205 122:213 123:223 124:11 125:215 126:98 127:152 128:48 129:16 130:253 131:1 132:132 133:3 134:248 135:59 136:55 137:205 138:115 139:181 140:90 141:60 142:254 143:44 144:130 145:185 146:44 147:100 148:47 149:213 150:246 151:42 152:1 153:84 154:41 155:197 156:252 157:250 158:62 159:232 160:65 161:160 162:73 163:250 164:137 165:197 166:244 167:189 168:163 169:139 170:23 171:1 172:234 173:133 174:97 175:206 176:216 177:114 178:134 179:12 180:56 181:222 182:11 183:182 184:79 185:239 186:251 187:171 188:255 189:134 190:222 191:231 192:253 193:145 194:103 195:5 196:177 197:73 198:44 199:9 200:94 201:173 202:247 203:201 204:2 205:100 206:15 207:100 208:31 209:253 210:72 211:250 212:243 213:140 214:37 215:213 216:163 217:239 218:200 219:254 220:151 221:14 222:6 223:171 224:165 225:232 
1 0.7802734375 0.880859375 0.7685546875 0.70703125 0.8046875 0.841796875 1 0.841796875 0.955078125 0.6826171875 0.841796875 0.779296875 1:17 2:254 3:251 4:13 5:134 6:199 7:254 8:47 9:3 10:189 11:254 12:159 13:253 14:6 15:252 16:254 17:161 18:252 19:240 20:252 21:189 22:125 23:241 24:117 25:245 26:48 27:149 28:58 29:197 30:100 31:146 32:254 33:226 34:253 35:156 36:4 37:82 38:255 39:69 40:228 41:117 42:51 43:40 44:255 45:255 46:253 47:218 48:125 49:180 50:254 51:89 52:5 53:88 54:108 55:253 56:6 57:185 58:255 59:90 60:223 61:240 62:157 63:254 64:242 65:151 66:253 67:255 68:1 69:179 70:79 71:88 72:91 73:53 74:11 75:156 76:50 77:80 78:5 79:113 80:125 81:252 82:138 83:21 84:72 85:64 86:34 87:252 88:251 89:213 90:228 91:222 92:8 93:1 94:4 95:69 96:5 97:230 98:223 99:16 100:214 101:170 102:255 103:253 104:247 105:2 106:181 107:247 108:182 109:237 110:91 111:238 112:94 113:65 114:120 115:224 116:152 117:168 118:253 119:119 120:113 121:230 122:221 123:253 124:233 125:232 126:162 127:168 128:12 129:138 130:123 131:225 132:123 133:180 134:246 135:174 136:229 137:59 138:201 139:160 140:220 141:249 142:255 143:247 144:3 145:84 146:47 147:253 148:69 149:129 150:19 151:40 152:23 153:191 154:226 155:29 156:253 157:50 158:41 159:31 160:34 161:161 162:99 163:59 164:1 165:15 166:208 167:227 168:47 169:1 170:244 171:254 172:254 173:67 174:111 175:89 176:136 177:45 178:250 179:4 180:250 181:195 182:26 183:241 184:15 185:126 186:253 187:8 188:255 189:83 190:3 191:247 192:191 193:21 194:248 195:228 196:2 197:238 198:2 199:217 200:230 201:211 202:254 203:52 204:5 205:174 206:32 207:155 208:190 209:253 210:134 211:104 212:204 213:224 214:36 215:254 216:7 217:199 218:86 219:254 220:3 221:234 222:64 223:172 224:45 225:13 
1 0.7802734375 0.880859375 0.7685546875 0.70703125 0.8046875 0.841796875 1 0.841796875 0.955078125 0.6826171875 0.841796875 0.779296875 1:2 2:149 3:140 4:233 5:172 6:26 7:254 8:201 9:187 10:247 11:222 12:7 13:252 14:196 15:48 16:251 17:121 18:33 19:252 20:247 21:101 22:40 23:241 24:6 25:58 26:5 27:109 28:193 29:47 30:85 31:118 32:252 33:95 34:252 35:154 36:239 37:250 38:2 39:81 40:228 41:247 42:253 43:157 44:255 45:255 46:252 47:4 48:10 49:195 50:3 51:112 52:236 53:81 54:88 55:127 56:240 57:53 58:255 60:25 61:232 62:92 63:253 64:239 65:206 66:204 67:255 68:45 69:53 70:130 71:180 72:137 73:173 74:5 75:195 76:252 77:241 78:255 79:170 80:22 81:90 82:11 83:234 84:6 85:241 86:1 87:242 88:43 89:248 90:98 91:149 92:133 93:244 94:243 95:81 96:253 97:2 98:129 99:253 100:72 101:2 102:255 103:36 104:232 105:252 106:147 107:15 108:31 109:240 110:185 111:205 112:148 113:143 114:38 115:76 116:194 117:101 118:247 119:1 120:212 121:161 122:217 123:246 124:101 125:213 126:190 127:121 128:144 129:35 130:247 131:2 132:32 133:5 134:60 135:4 136:87 137:206 138:7 139:164 140:151 141:22 142:255 143:31 144:177 145:228 146:122 148:38 149:54 150:80 151:13 152:249 153:77 154:49 155:197 156:253 157:246 158:115 159:254 160:217 161:122 162:152 163:223 164:235 165:241 166:250 167:207 168:112 169:245 170:48 171:2 172:20 173:120 174:146 175:161 176:254 177:9 178:140 179:251 180:10 181:147 182:88 183:69 184:190 185:242 186:252 187:166 188:255 189:170 190:241 191:251 192:185 193:229 194:5 195:17 196:226 197:233 198:146 199:155 200:68 201:16 202:200 203:155 204:232 205:84 206:135 207:10 208:178 209:253 210:23 211:213 212:247 213:240 214:198 215:218 216:237 217:247 218:254 219:254 220:232 221:173 222:91 223:138 224:212 225:244 
1 0.7802734375 0.880859375 0.7685546875 0.70703125 0.8046875 0.841796875 1 0.841796875 0.955078125 0.6826171875 0.841796875 0.779296875 1:1 2:153 3:251 4:162 5:245 6:253 7:254 8:132 9:34 10:242 11:248 12:98 13:32 14:11 15:241 16:253 17:249 18:247 19:72 20:143 21:41 22:138 23:245 24:214 25:29 26:14 27:55 28:90 29:18 30:204 31:79 32:254 33:125 34:252 35:67 36:8 37:242 38:137 39:174 40:254 41:9 42:203 43:138 44:255 45:255 46:253 47:1 48:90 49:192 50:162 51:219 52:121 53:83 54:210 55:159 56:212 57:241 58:255 59:15 60:232 61:218 62:44 63:254 64:129 65:6 66:220 67:255 68:175 69:4 70:153 71:58 72:54 73:123 74:250 75:176 76:184 77:181 78:3 79:13 80:145 81:219 82:184 83:12 84:143 85:254 86:193 87:253 88:228 89:121 90:213 91:235 92:26 93:125 94:8 95:55 96:164 97:203 98:191 99:7 100:59 101:2 102:255 103:58 104:248 105:244 106:199 107:30 108:3 109:251 110:252 111:255 112:123 113:118 114:197 115:103 116:7 117:190 118:253 119:44 120:51 121:202 122:216 123:7 124:4 125:230 126:146 127:115 128:97 129:79 130:204 131:245 132:237 133:249 134:192 135:172 136:126 137:254 139:176 140:100 141:136 142:255 143:26 144:90 145:2 146:91 147:51 148:234 149:97 150:230 151:65 152:244 153:11 154:250 155:8 156:253 157:14 158:67 159:234 160:230 161:129 162:13 163:6 164:238 165:57 166:240 167:226 168:244 169:3 170:70 171:222 172:240 173:201 174:227 175:213 176:219 177:46 178:12 179:181 180:18 181:250 182:196 183:14 184:10 185:253 186:254 187:202 188:255 189:224 190:67 191:102 192:21 193:217 194:227 195:254 196:64 197:84 198:77 199:67 200:116 201:113 202:255 203:223 204:249 205:150 206:247 207:17 208:17 209:253 210:26 211:151 212:9 213:141 214:248 215:247 216:164 217:245 218:252 219:254 220:99 221:122 222:78 223:157 224:9 225:211 
1 0.7802734375 0.880859375 0.7685546875 0.70703125 0.8046875 0.841796875 1 0.841796875 0.955078125 0.6826171875 0.841796875 0.779296875 2:230 3:237 4:159 5:243 6:80 7:255 8:254 9:145 10:224 12:19 13:232 14:191 15:175 16:254 17:99 18:232 19:179 20:15 21:121 22:41 23:254 24:91 25:3 26:77 27:162 28:242 29:1 30:106 31:41 32:255 33:243 34:255 35:121 36:91 37:39 38:4 39:21 40:80 41:161 42:132 43:181 44:255 45:255 46:255 47:37 48:148 49:211 50:169 51:249 52:241 53:52 54:191 55:110 56:30 57:20 58:255 59:2 60:19 61:50 62:35 63:255 64:252 65:2 66:246 67:255 68:41 69:64 70:221 71:254 72:82 73:114 74:251 75:214 76:254 77:253 78:6 79:11 80:63 81:213 82:96 83:250 84:252 85:247 86:19 87:249 88:5 89:16 90:141 91:41 92:88 93:222 94:8 95:105 96:153 97:56 98:171 99:46 100:121 102:255 103:24 104:254 105:251 106:209 107:118 108:22 109:207 110:188 111:255 112:190 113:132 114:147 115:27 116:149 117:200 118:254 119:61 120:234 121:221 122:22 123:21 124:3 125:246 126:168 127:132 128:115 129:208 130:8 131:253 132:152 133:224 134:23 135:4 136:144 137:35 138:9 139:126 140:67 141:36 142:255 143:34 144:217 145:88 146:134 147:173 148:3 149:73 150:121 151:114 152:234 153:32 154:253 155:231 156:255 157:174 158:188 159:217 160:253 161:92 162:107 163:7 164:239 165:9 166:199 167:239 168:168 169:246 170:15 171:253 172:147 173:92 174:209 175:81 176:7 177:244 178:63 179:252 180:1 181:88 182:198 183:237 184:6 185:159 186:255 187:90 188:255 189:237 190:168 191:37 192:2 193:202 194:1 195:108 196:2 197:76 198:205 199:42 200:248 201:71 202:246 203:134 204:255 205:69 206:251 207:3 208:66 209:255 210:3 211:236 212:153 213:43 214:35 215:204 216:246 217:144 218:252 219:255 220:5 221:210 222:42 223:186 224:172 225:13 
1 0.7802734375 0.880859375 0.7685546875 0.70703125 0.8046875 0.841796875 1 0.841796875 0.955078125 0.6826171875 0.841796875 0.779296875 1:3 2:169 3:72 4:16 5:70 6:2 7:255 8:252 9:202 10:254 11:4 12:73 13:96 14:241 15:167 16:255 17:204 19:126 20:126 21:54 22:156 23:252 24:109 25:222 26:18 27:221 28:50 29:23 30:87 31:197 32:255 33:229 34:255 35:159 36:245 37:254 38:10 39:136 40:3 41:242 42:201 43:192 44:255 45:255 46:255 47:24 48:96 49:224 50:32 51:56 52:242 53:5 54:216 55:28 56:27 57:6 58:255 59:15 60:2 61:231 62:159 63:255 64:239 65:35 66:21 67:255 68:87 69:253 70:34 71:241 72:235 73:179 74:14 75:170 76:230 77:255 78:5 79:29 80:65 81:47 82:221 83:181 84:253 85:219 86:57 87:226 88:43 89:215 90:24 91:218 92:27 93:254 94:154 95:109 96:252 97:139 98:242 99:208 100:92 101:5 102:255 103:120 104:254 105:234 106:193 107:41 108:2 109:91 110:201 111:53 112:186 113:220 114:12 115:122 116:55 117:183 118:255 119:202 120:205 121:239 122:206 123:252 124:1 125:250 126:92 127:127 128:127 129:27 130:2 131:205 132:157 133:252 134:7 135:142 136:186 137:65 138:228 139:210 140:186 141:238 142:255 143:255 144:212 145:93 146:183 147:48 148:1 149:156 150:233 151:26 152:95 153:160 154:230 155:4 156:255 157:59 158:198 159:253 160:75 161:152 162:100 163:6 164:16 165:23 166:136 167:238 168:99 169:255 170:239 171:78 172:251 173:19 174:24 175:167 176:251 177:24 178:165 179:252 181:241 182:251 183:59 184:3 185:13 186:255 187:206 188:255 189:129 190:9 191:203 192:26 193:254 194:255 195:201 196:94 197:139 198:47 199:230 200:252 201:7 202:113 203:210 204:249 205:5 206:4 207:34 208:30 209:255 210:128 211:56 212:236 213:213 214:146 215:247 216:235 217:241 218:253 219:255 220:139 221:4 222:9 223:185 224:32 225:119 
1 0.7802734375 0.880859375 0.7685546875 0.70703125 0.8046875 0.841796875 1 0.841796875 0.955078125 0.6826171875 0.841796875 0.779296875 1:22 2:200 3:248 4:7 5:229 6:251 7:255 8:169 9:54 10:25 11:209 12:105 13:115 14:236 15:64 16:253 17:85 18:249 19:244 20:151 21:77 22:201 23:251 24:3 25:7 26:251 27:122 28:143 29:71 30:226 31:77 32:254 33:251 34:254 35:94 36:246 37:128 38:202 39:59 40:225 41:14 42:7 43:124 44:255 45:255 46:254 47:1 48:190 49:219 50:15 51:254 52:172 53:244 54:213 55:254 56:82 57:72 58:255 59:82 60:248 61:34 62:30 63:255 64:58 65:58 66:249 67:255 68:122 69:143 70:159 71:18 72:199 73:211 74:254 75:203 76:238 77:217 78:81 79:121 80:169 81:254 82:198 83:25 84:203 85:241 86:143 87:244 88:52 89:55 90:220 91:168 92:66 93:12 94:12 95:55 96:2 97:31 98:48 99:2 100:92 101:230 102:255 103:132 104:250 105:35 106:157 107:240 108:171 109:252 110:221 111:207 112:37 113:57 114:250 115:147 116:122 117:221 118:254 119:246 120:158 121:187 122:112 123:9 124:160 125:241 126:15 127:167 128:139 129:205 130:241 131:253 132:148 133:136 134:248 135:187 136:62 137:149 138:27 139:162 140:8 141:13 142:255 143:168 144:3 145:55 146:74 147:217 148:51 149:45 150:16 151:49 152:120 153:21 154:232 155:117 156:254 157:1 158:68 159:161 160:186 161:145 162:157 163:1 164:255 165:167 166:202 167:238 168:132 169:75 170:19 171:252 172:227 173:255 174:41 175:69 176:3 177:248 178:204 179:254 180:164 181:239 182:200 183:238 184:2 185:116 186:255 187:163 188:255 189:97 190:139 191:5 192:26 193:203 194:13 195:238 196:12 197:11 198:180 199:236 200:225 201:251 202:190 203:143 204:177 205:35 206:174 207:176 208:36 209:254 210:214 211:255 212:155 213:246 214:40 215:153 216:80 217:33 218:27 219:255 220:30 221:212 222:17 223:166 224:199 225:40 
1 0.7802734375 0.880859375 0.7685546875 0.70703125 0.8046875 0.841796875 1 0.841796875 0.955078125 0.6826171875 0.841796875 0.779296875 1:8 2:10 3:183 4:31 5:12 6:252 7:255 8:100 9:2 10:151 11:62 12:5 13:135 14:240 15:91 16:254 17:148 18:186 20:8 21:214 22:1 23:191 24:2 25:64 26:107 27:97 28:38 29:143 30:29 31:91 32:255 34:255 35:61 36:92 37:148 38:130 39:181 40:4 41:28 42:11 43:189 44:255 45:255 46:255 47:3 48:132 49:220 50:156 51:218 52:232 53:50 54:167 55:253 56:19 57:78 58:255 59:249 60:254 61:22 62:132 63:255 64:10 65:66 66:236 67:255 68:228 69:2 70:21 71:119 72:197 73:95 74:14 75:198 76:158 77:83 78:163 79:3 80:83 81:243 82:94 83:137 84:198 85:250 86:254 87:2 88:253 89:213 90:253 91:235 92:112 93:47 94:77 95:102 96:246 97:43 98:1 99:1 100:211 101:231 102:255 103:254 104:160 105:246 106:164 107:78 108:35 109:66 110:208 111:246 112:153 113:146 114:251 115:49 116:17 117:192 118:255 119:210 120:248 121:223 122:249 123:8 124:3 125:247 126:253 127:211 128:239 129:17 130:7 131:254 132:186 133:232 134:253 135:60 136:201 137:27 138:117 139:241 140:221 141:103 142:255 143:20 144:190 145:230 146:41 147:7 148:5 149:204 150:209 151:57 152:255 153:5 154:245 155:97 156:255 157:57 158:108 159:228 160:238 161:203 162:160 163:22 164:60 165:185 166:70 167:246 168:76 169:4 170:10 171:4 172:197 173:254 174:193 175:12 176:252 177:44 178:207 179:31 180:132 181:38 182:227 183:248 184:102 185:19 186:255 187:84 188:255 189:248 190:244 191:12 192:70 193:85 194:124 195:185 196:97 197:4 198:253 199:181 200:250 201:38 202:184 203:253 204:239 205:92 206:153 207:232 208:43 209:255 210:132 211:255 213:168 214:1 215:54 216:168 217:237 218:202 219:255 220:8 221:123 222:37 223:216 224:4 225:192 
1 0.7802734375 0.880859375 0.7685546875 0.70703125 0.8046875 0.8408203125 1 0.8408203125 0.955078125 0.6826171875 0.8408203125 0.779296875 1:9 2:253 3:253 4:218 5:252 6:144 7:255 8:200 9:199 10:29 11:197 12:6 13:253 14:105 15:56 16:254 17:114 18:210 19:213 20:57 21:50 22:201 23:252 24:109 25:101 26:247 27:95 28:231 29:55 30:112 31:83 32:254 33:245 34:254 35:173 36:52 37:24 38:59 39:35 40:200 41:22 42:224 43:48 44:255 45:255 46:254 47:254 48:253 49:161 50:196 51:247 52:211 53:87 54:110 55:251 56:2 57:89 58:255 59:39 60:3 61:253 62:72 63:254 64:254 65:216 66:57 67:255 68:1 69:116 70:31 71:117 72:236 73:209 74:245 75:191 76:251 77:85 78:252 79:171 80:61 81:249 82:39 83:249 84:213 85:62 86:6 87:244 88:6 89:100 90:174 91:20 92:23 93:28 94:180 95:158 96:29 97:16 98:30 99:119 100:162 101:56 102:255 103:126 104:224 105:40 106:184 107:244 108:60 109:251 110:250 111:55 112:17 113:145 114:39 115:111 116:121 117:144 118:254 119:67 120:247 121:173 122:165 123:252 124:47 125:234 126:16 127:173 128:35 129:148 130:211 131:197 132:143 133:42 134:112 135:2 136:53 137:19 138:237 139:160 140:89 141:198 142:255 143:29 144:236 145:62 146:103 147:130 148:29 149:18 150:117 151:85 152:125 153:29 154:125 155:225 156:254 157:249 158:4 159:232 160:179 161:83 162:53 163:253 164:114 165:147 166:11 167:212 168:167 169:86 170:221 171:65 172:97 173:1 174:233 175:203 176:48 177:23 178:178 179:207 180:94 181:254 182:71 183:198 184:37 185:250 186:254 187:135 188:255 189:61 190:200 191:214 192:227 193:135 194:10 195:234 196:96 197:93 198:4 199:82 200:185 201:97 202:239 203:77 204:109 205:31 206:4 207:102 208:230 209:254 210:43 211:250 212:232 213:88 214:218 215:244 216:7 217:166 218:136 219:255 220:113 221:212 222:47 223:185 224:154 225:2 
1 0.7802734375 0.880859375 0.7685546875 0.70703125 0.8046875 0.8408203125 1 0.8408203125 0.955078125 0.6826171875 0.8408203125 0.779296875 2:252 3:178 4:158 5:235 6:214 7:255 8:52 9:66 10:9 11:146 12:19 13:72 14:254 15:235 16:252 17:208 18:227 19:255 20:24 21:52 22:248 23:254 24:71 25:4 26:93 27:52 28:118 29:60 30:214 31:190 32:254 33:241 34:253 35:198 36:237 37:236 38:93 39:109 40:202 41:56 42:164 43:45 44:255 45:255 46:254 47:214 48:60 49:175 50:82 51:246 52:242 53:19 54:105 55:37 56:90 57:14 58:255 59:49 60:72 61:244 62:29 63:254 64:249 65:203 66:174 67:255 68:4 69:168 70:220 71:71 72:6 73:65 74:53 75:155 76:246 77:36 78:176 79:217 80:25 81:241 82:208 83:223 84:228 85:250 86:128 87:254 88:200 89:75 90:121 91:221 92:20 93:242 94:70 95:102 96:18 97:46 98:253 99:31 100:13 101:1 102:255 103:2 104:61 105:189 106:191 107:195 108:45 109:254 110:246 111:238 112:21 113:88 114:103 115:242 116:237 117:152 118:253 119:22 120:79 121:209 122:154 123:16 124:86 125:210 126:1 127:97 129:255 130:251 131:133 132:95 133:212 134:8 135:7 136:97 137:150 138:25 139:136 140:56 141:148 142:255 143:192 144:243 145:19 146:175 147:91 148:27 149:9 150:16 151:68 152:20 153:93 154:253 155:151 156:254 157:167 158:151 159:131 160:237 161:134 162:167 163:187 164:250 165:71 166:251 167:224 168:18 169:248 170:207 171:252 172:32 173:3 174:251 175:98 177:8 178:65 179:255 180:59 181:251 182:249 183:146 184:2 185:189 186:254 187:104 188:255 189:111 190:116 191:188 192:15 193:234 194:104 195:220 196:112 197:40 198:37 199:124 200:252 201:12 202:139 203:207 204:170 205:1 206:234 207:13 208:93 209:254 210:219 211:254 212:252 213:225 214:207 215:150 216:254 217:203 218:102 219:254 220:232 221:14 222:22 223:196 224:231 225:66 
1 0.7802734375 0.880859375 0.7685546875 0.70703125 0.8046875 0.8408203125 1 0.8408203125 0.955078125 0.6826171875 0.8408203125 0.779296875 1:191 2:254 3:254 4:173 5:215 6:26 7:255 8:254 9:168 10:105 11:221 12:12 13:249 14:105 15:246 16:255 17:4 18:29 19:37 20:253 21:39 22:53 23:248 24:247 25:250 26:255 27:217 28:25 29:14 30:39 31:249 32:255 33:250 34:255 35:229 36:8 37:19 38:254 39:31 40:53 41:172 42:99 43:74 44:255 45:255 46:255 47:252 48:210 49:201 50:250 51:237 52:190 53:226 54:78 55:103 56:231 57:245 58:255 59:219 60:91 61:253 62:115 63:255 64:233 65:139 66:251 67:255 68:2 69:187 70:31 71:7 72:255 73:70 74:123 75:208 76:5 77:19 78:251 79:249 80:151 81:49 82:249 83:17 84:252 87:14 88:22 89:255 90:16 91:109 92:12 93:9 94:70 95:168 96:224 97:219 98:39 99:185 100:89 101:45 102:255 103:255 104:148 106:202 107:251 108:155 109:245 110:42 112:172 113:184 114:2 115:197 116:2 117:130 118:254 119:249 120:255 121:225 122:9 123:254 124:187 125:246 126:243 127:182 128:159 129:243 130:142 131:238 132:57 133:157 134:250 135:1 136:207 137:14 138:255 139:192 140:110 141:37 142:255 143:53 144:185 145:62 146:98 147:171 148:1 149:126 150:3 151:118 152:127 153:68 154:41 155:255 156:255 157:198 158:19 159:14 160:42 161:186 162:41 163:254 164:15 165:69 167:234 168:47 169:3 170:243 171:1 172:223 173:88 174:18 175:58 176:252 177:3 178:251 179:85 180:140 181:213 182:24 183:254 184:15 185:227 186:255 187:123 188:255 189:17 190:246 191:4 192:35 193:107 194:93 195:246 196:168 197:253 198:1 199:215 200:237 201:5 202:204 203:139 204:86 205:15 207:140 208:251 209:255 210:112 211:85 212:16 213:24 214:253 215:147 216:30 217:77 218:68 219:255 220:54 221:120 222:139 223:202 224:16 225:1 
1 0.7802734375 0.880859375 0.7685546875 0.70703125 0.8046875 0.8408203125 1 0.8408203125 0.955078125 0.6826171875 0.8408203125 0.779296875 1:249 2:250 3:248 4:4 5:247 6:161 7:255 8:248 9:229 10:117 11:150 12:191 13:215 14:86 15:247 16:253 17:38 18:7 19:31 20:171 21:17 22:57 23:246 24:172 25:251 26:255 27:160 28:18 29:26 30:82 31:245 32:254 33:254 34:254 35:120 36:163 37:207 38:210 39:119 40:24 41:232 42:93 43:88 44:255 45:255 46:254 47:235 48:233 49:141 50:179 51:142 52:24 53:226 54:124 55:243 56:197 57:236 58:255 59:188 60:30 61:250 62:91 63:254 64:223 65:28 66:42 67:255 68:138 69:118 70:102 71:4 72:217 73:114 74:135 75:129 76:146 77:230 78:141 79:222 80:24 81:199 82:249 83:131 84:188 85:1 86:7 87:206 88:7 89:253 90:7 91:199 92:3 93:165 94:25 95:100 96:252 97:241 98:79 99:197 100:34 101:53 102:255 103:250 104:234 105:1 106:176 107:122 108:1 109:233 110:186 111:1 112:127 113:168 114:18 115:37 116:12 117:102 118:253 119:255 120:252 121:201 122:222 123:252 124:128 125:244 126:183 127:130 128:236 129:196 130:2 131:254 132:63 133:239 134:252 135:38 136:151 137:132 138:254 139:103 140:140 141:99 142:255 143:246 144:19 145:20 146:129 147:41 148:6 149:164 150:68 151:23 152:241 153:35 154:228 155:196 156:253 157:22 158:59 159:119 160:10 161:126 162:108 163:127 164:19 165:114 166:11 167:220 168:229 169:91 170:249 171:101 172:247 173:82 174:5 175:169 176:208 177:4 178:243 179:239 180:62 181:155 182:163 183:247 184:2 185:187 186:254 187:145 188:255 189:18 190:202 191:1 192:9 193:87 194:255 195:249 196:90 197:239 198:5 199:236 200:245 201:18 202:193 203:41 204:202 205:25 207:249 208:233 209:254 210:238 211:151 212:22 213:23 214:220 215:233 216:39 217:125 218:102 219:254 220:60 221:18 222:89 223:166 224:5 225:5 
1 0.7802734375 0.880859375 0.7685546875 0.70703125 0.8046875 0.8408203125 1 0.8408203125 0.955078125 0.6826171875 0.8408203125 0.779296875 1:93 2:253 3:88 4:38 5:227 6:158 7:255 8:108 9:80 10:93 11:234 12:71 13:162 14:102 15:254 16:254 17:79 18:113 19:220 20:199 21:6 22:184 23:162 24:231 25:243 26:245 27:150 28:38 29:202 30:53 31:246 32:254 33:210 34:254 35:178 36:78 37:218 38:255 39:169 40:237 41:32 42:90 43:83 44:255 45:255 46:254 47:214 48:158 49:186 50:173 51:21 52:231 53:184 54:221 55:229 56:70 57:210 58:255 59:237 60:161 61:240 62:209 63:254 64:218 65:191 66:19 67:255 68:30 69:4 70:17 71:57 72:240 73:133 74:23 75:156 76:96 77:82 78:50 79:197 80:3 81:250 82:110 83:85 84:243 85:29 86:209 87:240 88:211 89:232 90:210 91:33 92:22 93:36 94:226 95:92 96:252 97:246 98:14 99:181 100:71 101:88 102:255 103:250 104:168 105:233 106:172 107:222 109:90 110:254 111:21 112:100 113:138 114:31 115:212 116:2 117:160 118:254 119:184 120:249 121:212 122:33 123:239 124:224 125:240 126:248 127:203 128:146 129:28 130:13 131:252 132:206 133:252 134:253 135:144 136:227 137:159 138:247 139:185 140:241 141:23 142:255 143:238 144:224 145:47 146:123 147:184 148:232 149:245 150:211 151:23 152:55 153:70 154:210 155:215 156:254 157:47 158:142 159:82 160:16 161:169 162:16 163:236 164:10 165:94 166:8 167:222 168:183 169:64 170:251 171:13 172:253 173:21 174:59 175:125 176:249 177:75 178:191 179:108 180:110 181:149 182:205 183:184 184:27 185:190 186:254 187:36 188:255 189:112 190:153 191:58 192:23 193:152 194:255 195:86 196:97 197:236 199:16 200:164 201:120 202:251 203:247 204:8 205:11 206:1 207:231 208:248 209:254 210:187 211:204 212:110 213:8 214:251 215:253 216:43 217:32 218:199 219:255 220:28 221:127 222:39 223:171 224:95 225:47 
1 0.7802734375 0.880859375 0.7685546875 0.70703125 0.8046875 0.8408203125 1 0.8408203125 0.955078125 0.6826171875 0.8408203125 0.779296875 1:10 2:228 3:215 4:6 5:118 6:50 7:255 8:31 9:3 10:152 11:2 12:132 13:253 14:255 15:238 16:255 17:251 18:193 19:27 20:130 21:86 22:213 23:51 24:167 25:66 26:157 27:174 28:3 29:11 30:126 31:151 32:255 33:14 34:255 35:197 36:198 37:210 38:6 39:74 40:58 41:122 43:123 44:255 45:255 46:255 47:160 48:169 49:179 50:228 51:69 52:187 53:151 54:249 55:67 56:179 57:44 58:255 59:254 60:56 61:7 62:196 63:255 64:40 65:22 66:253 67:255 68:4 69:93 70:226 71:137 72:16 73:237 74:5 75:161 76:232 77:254 79:43 80:226 81:28 82:18 83:139 84:208 85:178 86:14 87:158 88:215 89:139 90:14 91:228 92:250 93:27 94:1 95:160 96:100 97:250 98:66 99:145 100:12 101:34 102:255 103:146 104:254 105:249 106:203 107:17 108:127 109:12 110:40 111:244 112:197 113:225 114:131 115:127 116:151 117:199 118:255 119:255 120:34 121:242 122:204 123:252 124:32 125:249 126:61 127:225 128:39 129:5 130:12 131:252 132:40 133:253 135:97 136:226 137:5 138:240 139:206 140:236 141:254 142:255 143:253 144:16 145:252 146:237 147:207 148:1 149:83 150:14 151:228 152:250 153:103 154:234 155:3 156:255 157:65 158:63 159:211 160:97 161:203 162:61 163:7 164:1 165:2 166:47 167:245 168:1 169:114 170:85 171:255 172:26 173:119 174:226 175:182 176:252 177:18 178:37 179:210 180:6 181:9 182:31 183:17 184:10 185:1 186:255 187:134 188:255 189:162 190:36 191:158 192:2 193:244 194:200 195:227 197:233 198:104 199:131 200:255 202:8 203:148 204:252 205:19 206:253 207:62 208:16 209:255 210:15 211:108 212:214 213:253 214:227 215:245 216:233 217:247 218:166 219:255 220:11 221:73 222:105 223:225 224:48 225:189 
1 0.7802734375 0.880859375 0.7685546875 0.70703125 0.8046875 0.8408203125 1 0.8408203125 0.955078125 0.6826171875 0.8408203125 0.779296875 1:33 2:255 3:251 4:20 5:233 6:139 7:255 8:254 9:232 10:185 11:176 12:5 13:249 14:120 15:127 16:255 17:74 18:59 19:37 20:235 21:170 23:238 24:10 25:250 26:255 27:107 28:255 29:44 30:74 31:171 32:255 33:62 34:255 35:199 36:99 38:248 39:134 40:36 41:179 42:163 43:121 44:255 45:255 46:255 47:244 48:70 49:239 50:41 51:197 52:250 53:136 54:33 55:248 57:33 58:255 59:247 60:182 61:252 62:127 63:255 64:7 65:244 66:251 67:255 68:2 69:65 70:54 71:233 72:240 73:102 74:247 75:222 76:137 77:188 78:214 79:202 80:53 81:224 82:251 83:196 84:132 85:25 86:143 87:26 88:2 89:255 90:8 91:7 92:173 93:150 94:133 95:211 96:220 97:30 98:217 99:30 100:247 101:181 102:255 103:255 104:26 106:242 107:250 108:129 109:249 110:210 111:164 112:79 113:90 114:34 115:20 116:245 117:209 118:255 119:248 120:254 121:217 122:9 123:250 124:50 125:249 126:227 127:200 128:121 129:119 130:15 131:214 132:37 133:9 134:252 135:2 136:171 138:254 139:224 140:106 141:143 142:255 143:4 144:244 145:253 146:96 147:245 149:59 150:158 151:68 152:246 153:201 154:1 155:253 156:255 157:244 158:35 159:110 160:36 161:215 162:135 163:254 164:173 165:216 167:228 168:93 169:83 170:12 171:85 172:252 173:233 174:18 175:4 176:72 177:239 178:248 179:107 180:205 181:26 182:1 183:249 184:69 185:24 186:255 187:9 188:255 189:149 190:252 191:108 192:125 193:2 194:60 195:11 196:44 197:190 198:15 199:254 200:254 201:104 202:253 203:108 204:223 205:23 206:8 207:65 208:254 209:255 210:152 211:255 212:94 213:46 214:34 215:33 216:7 217:163 219:255 220:2 222:7 223:208 224:80 
1 0.7802734375 0.880859375 0.7685546875 0.70703125 0.8046875 0.8408203125 1 0.8408203125 0.955078125 0.6826171875 0.8408203125 0.779296875 1:4 2:5 3:128 4:27 5:244 6:7 7:255 8:174 9:246 10:38 11:247 12:241 13:133 14:12 15:254 16:255 17:255 18:74 19:127 20:243 21:40 22:79 23:125 24:8 25:248 26:253 27:229 28:231 29:16 30:178 31:212 32:255 33:255 34:255 35:178 36:255 37:161 38:241 39:144 40:245 41:255 42:254 43:139 44:255 45:255 46:255 47:49 48:187 49:244 50:1 51:243 52:20 53:124 54:48 55:248 56:14 57:11 58:255 59:65 60:182 61:253 62:157 63:255 64:178 65:252 66:3 67:255 68:3 69:238 70:136 71:194 72:211 73:216 74:245 75:221 76:124 77:16 78:203 79:143 80:108 81:208 82:66 83:132 84:1 85:28 86:86 87:246 88:94 89:229 90:2 91:10 92:5 93:253 94:250 95:50 96:72 97:67 98:161 99:145 100:248 101:254 102:255 103:47 104:17 106:242 107:172 109:171 110:249 111:72 112:187 113:128 115:140 116:124 117:224 118:255 119:235 120:68 121:228 122:1 123:255 124:255 125:242 126:254 127:144 128:149 129:50 130:245 131:5 132:140 134:23 135:253 136:193 137:1 138:15 139:141 140:153 141:3 142:255 143:6 144:64 145:33 146:225 147:25 148:209 149:119 150:5 151:18 152:247 153:81 154:2 156:255 157:3 158:254 159:136 160:215 161:168 162:28 163:240 164:7 165:140 166:242 167:243 168:220 169:1 170:230 171:200 172:255 173:255 174:245 175:52 176:28 177:57 178:254 179:79 180:255 181:133 182:147 183:29 184:96 185:141 186:255 187:62 188:255 189:56 190:247 191:49 192:243 193:4 194:244 195:12 196:232 197:87 198:4 199:205 201:10 202:254 203:248 204:24 205:47 206:161 207:16 208:137 209:255 210:203 211:2 212:133 213:33 214:255 215:15 216:69 217:2 218:253 219:255 220:135 221:2 223:214 224:247 225:69 
1 0.7802734375 0.880859375 0.7685546875 0.70703125 0.8046875 0.841796875 1 0.841796875 0.9560546875 0.6826171875 0.841796875 0.779296875 1:8 2:206 3:115 4:217 5:242 6:229 7:255 8:139 9:101 10:220 11:10 12:118 13:251 14:190 15:59 16:254 17:122 18:101 19:234 20:2 21:172 22:52 23:255 24:110 25:17 26:179 27:64 28:26 29:75 30:224 31:67 32:254 33:246 34:254 35:172 36:122 37:218 38:216 39:189 40:1 41:222 42:13 43:116 44:255 45:255 46:254 47:49 48:236 49:170 50:235 51:245 52:7 53:139 54:5 55:81 56:243 57:61 58:255 59:32 60:183 61:182 62:102 63:255 64:234 65:243 66:20 67:255 68:15 69:110 70:203 71:42 72:238 73:51 74:230 75:117 76:178 77:29 78:13 79:167 80:54 81:225 82:228 83:38 84:246 85:178 86:2 87:101 88:238 89:135 90:237 91:156 92:3 93:9 94:28 95:109 96:251 97:196 98:49 99:67 100:238 101:181 102:255 103:219 104:56 105:2 106:199 107:139 108:78 109:252 110:132 111:96 112:88 113:73 114:173 115:136 116:252 117:135 118:254 119:234 120:251 121:229 122:177 123:251 124:161 125:243 126:246 127:127 128:159 129:133 130:213 131:247 132:26 133:32 134:205 135:53 136:140 137:230 138:226 139:155 140:33 141:252 142:255 143:149 144:10 145:103 146:127 147:83 148:2 149:207 150:90 151:54 152:5 153:150 154:226 155:74 156:254 157:13 158:149 159:145 160:5 161:131 162:63 163:201 164:249 165:65 166:195 167:236 168:212 169:142 170:242 171:153 172:241 173:112 174:4 175:136 176:9 177:103 178:163 179:249 180:11 181:106 182:196 183:41 184:2 185:84 186:254 187:144 188:255 189:41 190:255 191:6 192:121 193:218 194:242 195:254 196:243 197:238 198:33 199:252 200:251 201:40 202:250 203:204 204:169 205:18 206:54 207:53 208:146 209:254 210:146 211:176 212:23 213:4 214:184 215:244 216:2 217:219 218:116 219:255 220:231 221:12 222:14 223:191 224:9 225:82 
1 0.7802734375 0.880859375 0.7685546875 0.70703125 0.8046875 0.841796875 1 0.841796875 0.9560546875 0.6826171875 0.841796875 0.779296875 1:248 2:112 3:118 4:171 5:34 6:67 7:255 8:221 9:13 10:202 11:198 12:40 13:254 14:238 15:62 16:255 17:212 18:149 20:233 21:178 22:1 24:224 25:75 26:252 27:237 28:77 29:149 30:226 31:165 32:255 33:3 34:255 35:122 36:54 37:68 38:1 39:144 40:92 42:3 43:154 44:255 45:255 46:255 47:251 48:17 49:170 50:235 51:23 52:84 53:240 54:235 55:2 56:252 57:146 58:255 59:246 60:250 61:10 62:210 63:255 65:5 66:197 67:255 68:98 69:1 70:121 71:59 72:90 73:251 74:11 75:227 76:174 77:24 79:197 80:201 81:7 82:73 83:4 84:5 85:88 86:223 87:1 88:27 89:222 90:40 91:241 92:173 93:4 94:59 95:131 96:253 97:253 98:10 99:155 100:29 101:1 102:255 103:106 104:2 105:255 106:241 107:20 108:222 109:17 110:13 111:1 112:231 113:228 114:25 115:22 116:41 117:216 118:255 119:157 121:233 122:129 123:203 124:211 125:248 126:251 127:238 128:252 129:1 130:254 131:160 132:75 133:250 134:239 135:211 136:241 137:255 138:239 139:213 140:218 141:251 142:255 143:23 144:251 145:54 146:242 147:2 148:173 149:197 150:232 151:143 152:122 153:33 154:23 155:25 156:255 157:6 158:177 159:238 160:111 161:193 162:54 163:8 164:36 165:242 166:5 167:247 168:2 170:4 171:248 172:5 173:254 174:44 175:210 176:254 177:202 178:141 179:236 180:30 181:83 182:2 183:95 184:95 185:7 186:255 187:211 188:255 189:169 190:252 191:3 193:224 194:112 195:157 196:9 197:248 198:74 199:243 200:254 202:23 203:4 204:255 205:162 206:252 207:241 208:203 209:255 210:105 211:12 213:20 214:8 215:61 216:236 217:245 218:9 219:255 220:67 221:204 222:107 223:225 224:58 225:251 
1 0.7802734375 0.880859375 0.7685546875 0.70703125 0.8046875 0.841796875 1 0.841796875 0.9560546875 0.6826171875 0.841796875 0.779296875 1:1 2:246 3:232 4:34 5:218 6:250 7:255 8:18 9:184 10:200 11:9 12:17 13:254 14:2 15:33 16:255 17:115 18:243 19:87 20:251 21:145 22:11 23:12 24:117 25:234 26:19 27:229 28:15 29:62 30:192 31:52 32:255 33:253 34:255 35:135 36:232 37:3 38:6 39:202 40:27 41:156 42:26 43:226 44:255 45:255 46:255 47:1 48:241 49:238 50:235 51:204 52:248 53:213 54:248 55:253 56:187 57:29 58:255 59:8 60:123 61:9 62:116 63:255 64:30 65:45 66:249 67:255 68:44 69:239 70:23 71:253 72:6 73:243 74:198 75:217 76:255 77:66 78:10 79:37 80:243 81:245 82:255 84:13 85:253 86:37 87:254 88:125 89:246 90:148 91:254 92:65 93:211 94:2 95:116 96:148 97:248 98:223 99:250 100:2 101:4 102:255 103:4 104:179 105:255 106:198 107:23 108:50 109:138 110:3 111:15 112:119 113:197 114:244 115:249 116:29 117:214 118:255 119:5 120:1 121:240 122:253 123:252 124:2 125:251 126:3 127:223 128:37 129:148 130:242 131:1 132:224 133:19 134:191 135:65 136:64 137:234 138:70 139:225 140:84 141:240 142:255 143:34 145:252 146:114 147:224 148:27 149:129 150:255 151:61 152:1 153:25 154:203 156:255 157:251 158:20 159:68 160:210 161:91 162:35 163:171 164:253 165:7 166:255 167:241 168:5 169:29 170:88 171:210 172:43 173:30 174:2 175:127 176:254 177:235 178:144 179:16 180:6 181:222 182:2 183:7 184:4 185:142 186:255 187:251 188:255 189:240 190:6 191:136 192:104 193:150 194:211 195:95 196:10 197:253 198:161 199:89 200:43 201:254 202:248 203:254 204:160 205:228 206:255 207:6 208:16 209:255 210:32 211:241 212:10 213:254 214:1 215:248 216:204 217:197 218:255 219:255 220:58 221:147 222:109 223:225 224:72 225:231 
1 0.7802734375 0.880859375 0.7685546875 0.70703125 0.8046875 0.841796875 1 0.841796875 0.9560546875 0.6826171875 0.841796875 0.779296875 1:92 3:173 4:249 5:84 6:240 7:255 8:2 9:10 10:198 11:19 12:209 13:33 14:45 15:55 16:255 18:179 19:189 20:2 21:7 22:255 23:220 24:21 27:96 28:99 29:15 30:196 31:135 32:255 33:22 34:255 35:106 37:236 38:236 39:13 40:8 42:174 43:42 44:255 45:255 46:255 47:237 48:212 49:145 50:81 52:3 53:227 54:5 56:61 57:144 58:255 59:243 60:23 61:2 62:230 63:255 64:247 65:4 66:1 67:255 68:28 69:7 70:15 73:163 74:213 75:202 76:36 78:3 79:95 80:12 81:170 82:14 83:255 84:230 85:54 87:3 88:238 89:1 90:255 91:148 94:25 95:161 96:3 97:41 99:1 100:112 102:255 103:217 104:156 105:2 106:196 107:52 108:94 109:35 110:4 111:89 112:134 113:77 114:147 115:3 116:250 117:64 118:255 119:252 120:255 121:204 122:252 124:124 125:219 126:21 127:162 128:205 130:17 131:254 132:169 133:223 134:238 136:140 137:255 138:38 139:144 140:128 141:18 142:255 143:11 144:99 145:37 146:31 147:1 148:143 149:231 150:233 151:121 152:10 153:13 154:254 155:208 156:255 158:21 159:6 160:2 161:165 162:36 163:50 164:240 165:13 166:1 167:224 168:226 170:242 171:25 172:193 173:123 174:110 175:7 176:2 177:22 178:247 180:113 181:14 182:255 183:8 184:13 185:254 186:255 187:58 188:255 189:1 190:175 192:247 194:255 195:241 196:15 197:23 198:139 199:238 200:97 201:4 202:35 205:233 207:203 208:6 209:255 210:244 211:155 212:2 214:223 215:1 216:85 217:255 218:22 219:255 220:35 221:61 222:12 223:86 225:22 
1 0.7802734375 0.880859375 0.7685546875 0.70703125 0.8046875 0.841796875 1 0.841796875 0.9560546875 0.6826171875 0.841796875 0.7783203125 1:77 2:14 3:184 4:109 5:172 6:237 7:255 8:5 9:22 10:167 11:5 12:78 13:115 14:253 15:80 16:255 17:24 18:222 19:29 20:33 21:106 22:40 23:10 24:252 25:17 26:206 27:200 28:2 29:24 30:13 31:243 32:255 33:28 34:255 35:205 36:129 37:218 38:75 39:252 40:23 41:253 43:194 44:255 45:255 46:255 47:69 48:190 49:184 50:155 51:242 52:227 53:122 54:23 55:211 56:239 57:68 58:255 59:224 60:220 61:119 62:166 63:255 64:6 65:195 66:242 67:255 68:69 69:114 70:113 71:244 72:1 73:240 75:192 76:51 77:227 78:177 79:242 80:80 81:85 82:204 83:4 84:1 85:253 86:226 87:60 88:165 89:207 90:9 91:254 92:223 93:18 94:21 95:215 96:236 97:232 98:254 99:242 100:7 101:9 102:255 103:6 104:160 105:108 106:144 107:5 108:233 109:7 110:18 112:196 113:222 114:240 115:66 116:213 117:215 118:255 119:176 120:2 121:224 122:244 123:110 124:96 125:252 126:44 127:230 128:252 129:181 130:40 131:120 132:19 133:195 134:31 135:1 136:224 137:77 138:247 139:233 140:226 141:247 142:255 143:231 144:8 145:253 146:158 147:195 148:112 149:111 150:138 151:51 152:215 153:232 154:233 155:229 156:255 157:216 158:78 159:114 160:8 161:178 162:115 163:18 164:144 165:91 166:6 167:239 169:4 170:65 171:250 172:2 173:20 174:24 175:12 176:195 177:84 178:225 179:250 180:33 181:71 182:224 183:174 184:16 185:4 186:255 187:141 188:255 189:168 191:28 193:180 194:252 195:157 196:2 197:171 198:213 199:249 200:250 201:234 203:247 204:254 205:4 206:250 207:160 208:253 209:255 210:87 211:251 212:1 213:252 214:88 215:181 216:233 217:178 218:225 219:255 220:214 221:30 222:153 223:233 224:65 225:51 
1 0.7802734375 0.880859375 0.7685546875 0.70703125 0.8046875 0.841796875 1 0.841796875 0.9560546875 0.6826171875 0.841796875 0.7783203125 1:19 2:160 3:86 4:241 5:240 6:251 7:255 8:244 9:251 10:66 11:144 12:16 13:13 14:21 15:147 16:254 17:151 18:131 19:97 20:102 21:14 22:176 23:254 24:247 25:27 26:246 27:89 28:126 29:2 30:118 31:243 32:254 33:226 34:254 35:121 36:14 37:55 38:5 39:64 40:250 41:86 42:223 43:77 44:255 45:255 46:254 47:13 48:238 49:209 50:16 51:226 52:247 53:148 54:174 55:101 56:98 57:80 58:255 59:169 60:87 61:212 62:92 63:255 64:253 65:45 66:180 67:255 68:138 69:47 70:181 71:52 72:168 73:199 74:193 75:189 76:185 77:101 78:73 79:125 80:50 81:251 82:87 83:244 84:129 85:185 86:190 87:254 88:12 89:57 90:169 91:32 92:8 93:254 94:48 95:118 96:196 97:69 98:176 99:107 100:78 101:65 102:255 103:233 104:214 105:247 106:198 107:157 108:1 109:254 110:253 111:249 112:133 113:233 114:64 115:218 116:4 117:124 118:254 119:244 120:254 121:187 122:160 123:27 124:134 125:236 126:57 127:118 128:8 129:241 130:121 131:252 132:78 133:249 134:234 135:60 136:93 137:195 138:1 139:104 140:101 142:255 143:13 144:248 145:1 146:82 147:2 148:146 149:22 150:73 151:166 152:250 153:86 154:244 155:237 156:254 157:138 158:8 159:202 160:202 161:110 162:4 163:251 164:253 165:8 166:3 167:223 168:249 169:2 170:78 171:4 172:202 173:13 174:244 175:82 176:185 177:220 179:225 180:2 181:66 182:212 183:81 184:51 185:251 186:254 187:160 188:255 189:191 190:189 191:22 192:196 193:85 194:49 195:252 196:233 197:14 198:75 199:3 200:75 201:22 202:255 203:70 204:135 205:67 206:165 207:8 208:73 209:255 210:135 211:247 212:115 213:72 214:110 215:180 216:244 217:81 218:208 219:255 220:63 221:10 222:117 223:167 224:178 225:62 
1 0.7802734375 0.880859375 0.7685546875 0.70703125 0.8046875 0.841796875 1 0.841796875 0.9560546875 0.6826171875 0.841796875 0.7783203125 1:12 2:108 3:35 4:114 5:243 6:241 7:255 8:121 9:238 10:61 11:180 12:18 14:219 15:232 16:254 17:200 18:113 19:253 20:63 21:9 22:252 23:252 24:253 25:83 26:236 27:92 28:56 29:2 30:93 31:248 32:254 33:229 34:254 35:153 36:128 37:240 38:57 39:181 40:241 41:213 42:217 43:182 44:255 45:255 46:254 47:74 48:116 49:209 50:4 51:245 52:176 53:169 54:170 55:76 56:168 57:97 58:255 59:173 60:30 61:166 62:131 63:255 64:252 65:137 66:109 67:255 68:146 69:106 70:196 71:2 72:169 73:159 74:98 75:181 76:179 77:248 78:31 79:241 80:65 81:213 82:231 83:244 84:226 85:177 86:117 87:253 88:12 89:85 90:174 91:138 92:149 93:250 94:30 95:157 96:197 97:20 98:247 99:194 100:14 101:10 102:255 103:252 104:234 105:213 106:182 107:238 108:2 109:253 110:254 111:244 112:121 113:230 114:42 115:230 116:26 117:145 118:254 119:252 120:255 121:208 122:38 123:5 124:227 125:237 126:3 127:130 128:39 129:246 130:3 131:254 132:160 133:253 134:122 135:132 136:158 137:189 138:18 139:149 140:231 141:3 142:255 143:163 144:226 145:2 146:139 147:61 148:24 149:21 150:70 151:219 152:241 153:130 154:250 155:243 156:254 157:239 158:31 159:126 160:235 161:187 162:58 163:248 164:246 165:32 166:3 167:216 168:201 169:46 170:90 171:17 172:207 173:26 174:251 175:108 176:41 177:132 178:22 179:240 180:28 181:66 182:248 183:241 184:11 185:244 186:255 187:61 188:255 189:189 190:27 191:126 192:97 193:111 194:241 195:193 196:197 197:1 198:90 199:2 200:145 201:32 202:254 203:208 204:83 205:4 206:8 207:45 208:92 209:255 210:55 211:252 212:253 213:99 214:192 215:37 216:247 217:111 218:213 219:255 220:31 221:1 222:4 223:206 224:70 225:118 
1 0.7802734375 0.880859375 0.7685546875 0.70703125 0.8046875 0.841796875 1 0.841796875 0.9560546875 0.6826171875 0.841796875 0.7783203125 1:35 2:250 3:175 4:2 5:232 6:113 7:255 8:210 9:4 10:187 11:253 12:17 13:169 14:244 15:255 16:254 17:158 18:170 19:205 20:36 21:32 22:170 23:104 24:104 25:245 26:248 27:55 28:15 29:153 30:82 31:223 32:254 33:173 34:254 35:170 36:39 37:207 38:254 39:55 40:106 41:71 42:16 43:98 44:255 45:255 46:254 47:235 48:62 49:216 50:170 51:223 52:203 53:142 54:23 55:88 56:1 57:129 58:255 59:161 60:165 61:253 62:65 63:254 64:77 65:247 66:11 67:255 68:13 69:71 70:170 71:233 72:246 73:18 74:73 75:132 76:23 77:51 78:234 79:217 80:7 81:233 82:241 83:7 84:237 85:164 86:161 87:99 88:249 89:205 90:114 91:159 92:72 93:1 94:231 95:50 96:229 97:250 98:244 99:42 100:58 101:57 102:255 103:47 104:146 105:17 106:227 107:243 108:72 109:243 110:208 111:21 112:138 113:110 114:28 115:225 116:189 117:154 118:254 119:48 120:30 121:222 122:143 123:206 124:248 125:234 126:223 127:118 128:5 129:250 130:244 131:242 132:70 133:235 134:201 135:1 136:220 137:49 138:221 139:159 140:134 141:237 142:255 143:246 144:253 145:118 146:108 147:253 148:48 149:123 150:126 151:8 152:5 153:101 154:125 155:241 156:254 157:115 158:224 159:226 160:246 161:194 162:11 163:117 164:200 165:243 166:50 167:221 168:61 169:12 170:239 171:253 172:107 173:70 174:191 175:91 176:2 177:106 178:166 179:170 180:202 181:236 182:184 183:251 184:2 185:121 186:254 187:125 188:255 189:10 190:11 191:241 192:13 193:221 194:127 195:33 196:16 197:221 198:2 199:181 200:253 201:90 202:202 203:248 204:178 205:3 206:15 207:10 208:196 209:254 210:231 211:250 212:145 213:92 214:254 215:252 216:252 217:230 218:103 219:255 220:101 221:126 222:7 223:194 224:194 225:22 
1 0.7802734375 0.880859375 0.7685546875 0.70703125 0.8046875 0.841796875 1 0.841796875 0.9560546875 0.6826171875 0.841796875 0.7783203125 1:64 2:4 3:5 4:99 5:253 6:250 7:255 8:10 9:15 10:35 11:154 12:98 13:38 14:170 15:136 16:254 17:241 18:255 19:254 20:19 21:95 22:254 23:142 24:160 25:63 26:253 27:86 28:11 29:24 30:215 31:228 32:255 33:252 34:254 35:177 36:254 37:227 38:244 39:159 40:248 41:250 42:2 43:153 44:255 45:255 46:255 47:8 48:17 49:203 50:3 51:250 52:87 53:208 54:116 55:252 56:195 57:156 58:255 59:240 60:100 61:246 62:108 63:255 64:138 65:237 66:92 67:255 68:121 69:11 70:217 71:147 72:179 73:94 74:160 75:219 76:30 77:153 78:162 79:247 80:3 81:249 82:5 83:69 84:4 85:235 86:252 87:254 88:27 89:148 90:243 91:174 92:124 93:58 94:29 95:168 96:10 97:7 98:231 99:162 100:151 101:16 102:255 103:181 104:156 105:62 106:205 107:108 108:12 109:222 110:218 111:250 112:137 113:234 114:237 115:127 116:248 117:191 118:254 119:114 120:220 121:206 122:84 123:19 124:254 125:234 126:2 127:185 128:184 129:9 130:70 131:251 132:86 133:197 134:214 135:17 136:142 137:2 138:144 139:154 140:240 141:1 142:255 143:245 144:19 145:235 146:244 147:223 148:253 149:63 150:212 151:6 152:194 153:38 154:151 155:254 156:255 157:2 158:213 159:4 160:167 161:198 162:44 163:147 164:139 165:143 166:205 167:231 168:149 170:203 171:244 172:56 173:230 174:84 175:37 176:89 177:127 178:49 179:187 180:251 181:56 182:174 183:40 184:9 185:245 186:255 187:16 188:255 189:20 190:2 191:25 193:9 194:50 195:31 196:5 197:7 198:12 199:113 200:12 201:23 202:163 203:255 204:9 205:122 206:154 207:216 208:50 209:255 210:244 211:243 212:64 213:222 214:250 215:223 216:184 217:55 218:43 219:255 220:187 222:68 223:175 224:228 225:156 
